{"loss": 0.45902806520462036, "epoch": 99, "_timestamp": 1709805593.368617, "_runtime": 66.12303495407104, "_step": 99, "gradients/graph_188.bias": {"_type": "histogram", "values": [1.0], "bins": [-11159.17578125, -11159.17578125]}, "gradients/graph_188.weight": {"_type": "histogram", "values": [4.0, 1.0, 1.0, 2.0, 1.0, 2.0, 0.0, 0.0, 0.0, 0.0, 0.0, 0.0, 0.0, 0.0, 0.0, 0.0, 0.0, 0.0, 0.0, 0.0, 0.0, 0.0, 0.0, 0.0, 0.0, 0.0, 0.0, 0.0, 0.0, 0.0, 0.0, 0.0, 0.0, 0.0, 0.0, 0.0, 0.0, 0.0, 0.0, 0.0, 0.0, 0.0, 0.0, 0.0, 0.0, 0.0, 0.0, 0.0, 0.0, 0.0, 0.0, 0.0, 0.0, 0.0, 0.0, 0.0, 0.0, 0.0, 0.0, 0.0, 0.0, 0.0, 0.0, 21.0], "bins": [-172914049024.0, -170212261888.0, -167510491136.0, -164808704000.0, -162106916864.0, -159405146112.0, -156703358976.0, -154001571840.0, -151299784704.0, -148598013952.0, -145896226816.0, -143194439680.0, -140492668928.0, -137790881792.0, -135089102848.0, -132387315712.0, -129685536768.0, -126983757824.0, -124281970688.0, -121580191744.0, -118878404608.0, -116176625664.0, -113474846720.0, -110773059584.0, -108071280640.0, -105369501696.0, -102667714560.0, -99965935616.0, -97264156672.0, -94562369536.0, -91860590592.0, -89158803456.0, -86457024512.0, -83755245568.0, -81053458432.0, -78351679488.0, -75649892352.0, -72948113408.0, -70246334464.0, -67544551424.0, -64842768384.0, -62140985344.0, -59439202304.0, -56737423360.0, -54035640320.0, -51333857280.0, -48632078336.0, -45930295296.0, -43228512256.0, -40526729216.0, -37824946176.0, -35123167232.0, -32421384192.0, -29719601152.0, -27017820160.0, -24316039168.0, -21614256128.0, -18912473088.0, -16210692096.0, -13508910080.0, -10807128064.0, -8105346048.0, -5403564032.0, -2701782016.0, 0.0]}, "gradients/graph_186.bias": {"_type": "histogram", "values": [2.0, 1.0, 0.0, 1.0, 2.0, 0.0, 0.0, 0.0, 1.0, 1.0, 1.0, 1.0, 0.0, 0.0, 0.0, 1.0, 0.0, 0.0, 0.0, 0.0, 0.0, 0.0, 0.0, 0.0, 0.0, 0.0, 0.0, 0.0, 0.0, 0.0, 0.0, 0.0, 0.0, 0.0, 0.0, 0.0, 0.0, 0.0, 0.0, 0.0, 0.0, 0.0, 0.0, 0.0, 0.0, 0.0, 0.0, 0.0, 0.0, 0.0, 0.0, 0.0, 0.0, 0.0, 0.0, 0.0, 0.0, 0.0, 0.0, 0.0, 0.0, 0.0, 0.0, 21.0], "bins": [-7426.103515625, -7308.8017578125, -7191.50048828125, -7074.19873046875, -6956.89697265625, -6839.595703125, -6722.2939453125, -6604.99267578125, -6487.69091796875, -6370.38916015625, -6253.087890625, -6135.7861328125, -6018.484375, -5901.18310546875, -5783.88134765625, -5666.57958984375, -5549.2783203125, -5431.9765625, -5314.6748046875, -5197.37353515625, -5080.07177734375, -4962.7705078125, -4845.46875, -4728.1669921875, -4610.86572265625, -4493.56396484375, -4376.26220703125, -4258.9609375, -4141.6591796875, -4024.357666015625, -3907.05615234375, -3789.75439453125, -3672.453125, -3555.1513671875, -3437.849853515625, -3320.54833984375, -3203.24658203125, -3085.945068359375, -2968.6435546875, -2851.342041015625, -2734.040283203125, -2616.73876953125, -2499.437255859375, -2382.135498046875, -2264.833984375, -2147.532470703125, -2030.2308349609375, -1912.9293212890625, -1795.627685546875, -1678.326171875, -1561.0245361328125, -1443.722900390625, -1326.42138671875, -1209.1197509765625, -1091.8182373046875, -974.5166015625, -857.2150268554688, -739.9134521484375, -622.6118774414062, -505.310302734375, -388.00872802734375, -270.7071228027344, -153.40554809570312, -36.103965759277344, 81.19761657714844]}, "gradients/graph_186.weight": {"_type": "histogram", "values": [32.0, 43.0, 25.0, 11.0, 48.0, 42.0, 6.0, 3.0, 6.0, 32.0, 35.0, 39.0, 33.0, 5.0, 1.0, 7.0, 28.0, 7.0, 1.0, 1.0, 0.0, 4.0, 1.0, 1.0, 2.0, 0.0, 0.0, 2.0, 1.0, 1.0, 0.0, 1.0, 0.0, 0.0, 0.0, 0.0, 0.0, 0.0, 0.0, 0.0, 0.0, 0.0, 0.0, 0.0, 0.0, 0.0, 0.0, 0.0, 0.0, 0.0, 0.0, 0.0, 0.0, 0.0, 0.0, 0.0, 0.0, 0.0, 0.0, 6.0, 5.0, 0.0, 0.0, 1619.0], "bins": [-6137993728.0, -6041038848.0, -5944083968.0, -5847129088.0, -5750174720.0, -5653219840.0, -5556264960.0, -5459310080.0, -5362355200.0, -5265400320.0, -5168445952.0, -5071491072.0, -4974536192.0, -4877581312.0, -4780626432.0, -4683671552.0, -4586717184.0, -4489762304.0, -4392807424.0, -4295852544.0, -4198897664.0, -4101943040.0, -4004988160.0, -3908033280.0, -3811078656.0, -3714123776.0, -3617168896.0, -3520214016.0, -3423259392.0, -3326304512.0, -3229349632.0, -3132395008.0, -3035440384.0, -2938485504.0, -2841530624.0, -2744576000.0, -2647621120.0, -2550666240.0, -2453711616.0, -2356756736.0, -2259801856.0, -2162846976.0, -2065892352.0, -1968937472.0, -1871982720.0, -1775027840.0, -1678073088.0, -1581118336.0, -1484163456.0, -1387208704.0, -1290253952.0, -1193299072.0, -1096344320.0, -999389504.0, -902434688.0, -805479872.0, -708525120.0, -611570304.0, -514615488.0, -417660704.0, -320705888.0, -223751104.0, -126796296.0, -29841496.0, 67113304.0]}, "gradients/graph_184.bias": {"_type": "histogram", "values": [3.0, 1.0, 2.0, 6.0, 9.0, 2.0, 6.0, 4.0, 1.0, 0.0, 0.0, 1.0, 1.0, 1.0, 0.0, 0.0, 0.0, 0.0, 0.0, 0.0, 0.0, 0.0, 0.0, 0.0, 0.0, 1.0, 0.0, 0.0, 0.0, 0.0, 0.0, 0.0, 0.0, 0.0, 0.0, 0.0, 0.0, 0.0, 0.0, 0.0, 0.0, 0.0, 0.0, 0.0, 0.0, 0.0, 0.0, 0.0, 0.0, 0.0, 0.0, 0.0, 0.0, 0.0, 0.0, 0.0, 0.0, 0.0, 0.0, 0.0, 1.0, 0.0, 0.0, 25.0], "bins": [-39336.1328125, -38721.50390625, -38106.87890625, -37492.25, -36877.625, -36262.99609375, -35648.37109375, -35033.7421875, -34419.1171875, -33804.48828125, -33189.86328125, -32575.234375, -31960.607421875, -31345.98046875, -30731.353515625, -30116.7265625, -29502.099609375, -28887.47265625, -28272.845703125, -27658.21875, -27043.591796875, -26428.96484375, -25814.337890625, -25199.7109375, -24585.08203125, -23970.455078125, -23355.828125, -22741.201171875, -22126.57421875, -21511.947265625, -20897.3203125, -20282.693359375, -19668.06640625, -19053.439453125, -18438.8125, -17824.185546875, -17209.55859375, -16594.931640625, -15980.3037109375, -15365.6767578125, -14751.0498046875, -14136.4228515625, -13521.7958984375, -12907.1689453125, -12292.541015625, -11677.9140625, -11063.287109375, -10448.66015625, -9834.033203125, -9219.40625, -8604.779296875, -7990.15185546875, -7375.52490234375, -6760.89794921875, -6146.2705078125, -5531.6435546875, -4917.0166015625, -4302.3896484375, -3687.762451171875, -3073.13525390625, -2458.50830078125, -1843.8812255859375, -1229.254150390625, -614.6270751953125, 0.0]}, "gradients/graph_184.weight": {"_type": "histogram", "values": [73.0, 162.0, 120.0, 182.0, 556.0, 647.0, 363.0, 546.0, 390.0, 196.0, 89.0, 85.0, 150.0, 155.0, 97.0, 60.0, 69.0, 59.0, 75.0, 56.0, 54.0, 32.0, 25.0, 29.0, 25.0, 42.0, 96.0, 13.0, 8.0, 8.0, 5.0, 3.0, 1.0, 4.0, 2.0, 3.0, 1.0, 0.0, 2.0, 1.0, 0.0, 0.0, 0.0, 0.0, 0.0, 0.0, 0.0, 0.0, 7.0, 25.0, 2.0, 3.0, 0.0, 0.0, 1.0, 0.0, 0.0, 0.0, 0.0, 0.0, 102.0, 23.0, 107.0, 3438.0], "bins": [-616744704.0, -607108096.0, -597471424.0, -587834816.0, -578198144.0, -568561536.0, -558924864.0, -549288256.0, -539651584.0, -530014976.0, -520378336.0, -510741696.0, -501105088.0, -491468448.0, -481831808.0, -472195168.0, -462558528.0, -452921888.0, -443285248.0, -433648608.0, -424011968.0, -414375360.0, -404738720.0, -395102080.0, -385465440.0, -375828800.0, -366192160.0, -356555520.0, -346918912.0, -337282272.0, -327645632.0, -318008992.0, -308372352.0, -298735712.0, -289099072.0, -279462432.0, -269825792.0, -260189168.0, -250552544.0, -240915904.0, -231279264.0, -221642624.0, -212005984.0, -202369360.0, -192732720.0, -183096080.0, -173459456.0, -163822816.0, -154186176.0, -144549536.0, -134912896.0, -125276272.0, -115639632.0, -106002992.0, -96366360.0, -86729728.0, -77093088.0, -67456448.0, -57819816.0, -48183180.0, -38546544.0, -28909908.0, -19273272.0, -9636636.0, 0.0]}, "gradients/graph_182.bias": {"_type": "histogram", "values": [104.0, 12.0, 2.0, 0.0, 0.0, 2.0, 2.0, 5.0, 0.0, 0.0, 0.0, 0.0, 0.0, 0.0, 0.0, 0.0, 0.0, 0.0, 0.0, 0.0, 0.0, 0.0, 0.0, 0.0, 0.0, 0.0, 0.0, 0.0, 0.0, 0.0, 0.0, 0.0, 0.0, 0.0, 0.0, 0.0, 0.0, 0.0, 0.0, 0.0, 0.0, 0.0, 0.0, 0.0, 0.0, 0.0, 0.0, 0.0, 0.0, 0.0, 0.0, 0.0, 0.0, 0.0, 0.0, 0.0, 0.0, 0.0, 0.0, 0.0, 0.0, 0.0, 0.0, 1.0], "bins": [-668035.375, -572634.875, -477234.40625, -381833.9375, -286433.4375, -191032.953125, -95632.46875, -231.984375, 95168.5, 190568.984375, 285969.46875, 381369.9375, 476770.4375, 572170.9375, 667571.375, 762971.875, 858372.375, 953772.875, 1049173.375, 1144573.875, 1239974.25, 1335374.75, 1430775.25, 1526175.75, 1621576.25, 1716976.75, 1812377.25, 1907777.75, 2003178.25, 2098578.75, 2193979.25, 2289379.75, 2384780.0, 2480180.5, 2575581.0, 2670981.5, 2766382.0, 2861782.5, 2957183.0, 3052583.5, 3147984.0, 3243384.25, 3338784.75, 3434185.25, 3529585.75, 3624986.25, 3720386.75, 3815787.25, 3911187.75, 4006588.25, 4101988.75, 4197389.0, 4292789.5, 4388190.0, 4483590.5, 4578991.0, 4674391.5, 4769792.0, 4865192.5, 4960593.0, 5055993.5, 5151394.0, 5246794.5, 5342195.0, 5437595.5]}, "gradients/graph_182.weight": {"_type": "histogram", "values": [7.0, 35.0, 125.0, 163.0, 169.0, 394.0, 505.0, 587.0, 825.0, 977.0, 1029.0, 1488.0, 1705.0, 2113.0, 2087.0, 2141.0, 2387.0, 1904.0, 1873.0, 1789.0, 1321.0, 1289.0, 1058.0, 777.0, 755.0, 426.0, 341.0, 316.0, 319.0, 166.0, 180.0, 136.0, 41.0, 30.0, 21.0, 75.0, 301.0, 142.0, 31.0, 30.0, 17.0, 11.0, 19.0, 35.0, 82.0, 108.0, 116.0, 92.0, 31.0, 17.0, 108.0, 21.0, 104.0, 132.0, 182.0, 91.0, 6.0, 1282.0, 0.0, 0.0, 1.0, 21.0, 88.0, 146.0], "bins": [-112677032.0, -110732448.0, -108787872.0, -106843288.0, -104898712.0, -102954128.0, -101009552.0, -99064968.0, -97120392.0, -95175808.0, -93231232.0, -91286648.0, -89342064.0, -87397488.0, -85452904.0, -83508328.0, -81563744.0, -79619168.0, -77674584.0, -75730008.0, -73785424.0, -71840848.0, -69896264.0, -67951680.0, -66007104.0, -64062524.0, -62117944.0, -60173360.0, -58228780.0, -56284200.0, -54339620.0, -52395040.0, -50450464.0, -48505884.0, -46561304.0, -44616720.0, -42672140.0, -40727560.0, -38782980.0, -36838400.0, -34893820.0, -32949240.0, -31004660.0, -29060078.0, -27115498.0, -25170918.0, -23226338.0, -21281758.0, -19337176.0, -17392596.0, -15448016.0, -13503436.0, -11558856.0, -9614275.0, -7669695.0, -5725114.5, -3780534.0, -1835953.625, 108626.75, 2053207.125, 3997787.5, 5942368.0, 7886948.0, 9831529.0, 11776109.0]}, "gradients/graph_180.bias": {"_type": "histogram", "values": [2.0, 1.0, 0.0, 0.0, 0.0, 2.0, 1.0, 3.0, 0.0, 2.0, 4.0, 4.0, 2.0, 6.0, 8.0, 10.0, 14.0, 13.0, 23.0, 16.0, 28.0, 18.0, 22.0, 11.0, 14.0, 6.0, 4.0, 5.0, 3.0, 7.0, 3.0, 3.0, 4.0, 3.0, 0.0, 4.0, 1.0, 1.0, 1.0, 0.0, 1.0, 0.0, 0.0, 2.0, 0.0, 1.0, 0.0, 1.0, 1.0, 0.0, 0.0, 0.0, 0.0, 0.0, 0.0, 0.0, 0.0, 0.0, 0.0, 0.0, 0.0, 0.0, 0.0, 1.0], "bins": [-64758952.0, -63099924.0, -61440892.0, -59781864.0, -58122836.0, -56463808.0, -54804776.0, -53145748.0, -51486720.0, -49827688.0, -48168660.0, -46509632.0, -44850604.0, -43191572.0, -41532544.0, -39873516.0, -38214488.0, -36555456.0, -34896428.0, -33237398.0, -31578370.0, -29919340.0, -28260312.0, -26601282.0, -24942252.0, -23283224.0, -21624194.0, -19965166.0, -18306136.0, -16647107.0, -14988078.0, -13329049.0, -11670020.0, -10010991.0, -8351962.0, -6692932.5, -5033903.5, -3374874.5, -1715845.25, -56816.125, 1602213.0, 3261242.0, 4920271.0, 6579300.5, 8238329.5, 9897359.0, 11556388.0, 13215417.0, 14874446.0, 16533475.0, 18192504.0, 19851534.0, 21510562.0, 23169592.0, 24828620.0, 26487650.0, 28146680.0, 29805708.0, 31464738.0, 33123766.0, 34782796.0, 36441824.0, 38100852.0, 39759884.0, 41418912.0]}, "gradients/graph_180.weight": {"_type": "histogram", "values": [1.0, 0.0, 1.0, 1.0, 0.0, 0.0, 1.0, 2.0, 0.0, 3.0, 6.0, 4.0, 4.0, 28.0, 53.0, 106.0, 44.0, 2.0, 0.0, 0.0, 0.0, 0.0, 0.0, 0.0, 0.0, 0.0, 0.0, 0.0, 0.0, 0.0, 0.0, 0.0, 0.0, 0.0, 0.0, 0.0, 0.0, 0.0, 0.0, 0.0, 0.0, 2.0, 2.0, 6.0, 47.0, 202.0, 10.0, 163.0, 80.0, 0.0, 1.0, 9.0, 290.0, 719.0, 279.0, 245.0, 387.0, 116335.0, 951.0, 230.0, 106.0, 3.0, 248.0, 5.0], "bins": [-9220499456.0, -9059737600.0, -8898974720.0, -8738211840.0, -8577449984.0, -8416687616.0, -8255925248.0, -8095162880.0, -7934400512.0, -7773638144.0, -7612875776.0, -7452113408.0, -7291351040.0, -7130588672.0, -6969826304.0, -6809063936.0, -6648301568.0, -6487539200.0, -6326776832.0, -6166014464.0, -6005252096.0, -5844489728.0, -5683727360.0, -5522964992.0, -5362202624.0, -5201440256.0, -5040677888.0, -4879915520.0, -4719153152.0, -4558390784.0, -4397628416.0, -4236866048.0, -4076103680.0, -3915341312.0, -3754578944.0, -3593816576.0, -3433054208.0, -3272291840.0, -3111529472.0, -2950767104.0, -2790004736.0, -2629242368.0, -2468480000.0, -2307717632.0, -2146955264.0, -1986192896.0, -1825430528.0, -1664668160.0, -1503905792.0, -1343143424.0, -1182381056.0, -1021618624.0, -860856256.0, -700093888.0, -539331520.0, -378569152.0, -217806784.0, -57044416.0, 103717952.0, 264480320.0, 425242688.0, 586005056.0, 746767424.0, 907529792.0, 1068292160.0]}, "_wandb": {"runtime": 61}}