{"loss": 8.407881736755371, "epoch": 499, "_timestamp": 1708154043.983176, "_runtime": 124.34240388870239, "_step": 499, "gradients/graph_50.bias": {"_type": "histogram", "values": [1.0], "bins": [-2377574.75, -2377574.75]}, "gradients/graph_50.weight": {"_type": "histogram", "values": [1.0, 0.0, 0.0, 0.0, 0.0, 0.0, 0.0, 0.0, 1.0, 0.0, 0.0, 0.0, 0.0, 0.0, 0.0, 1.0, 0.0, 1.0, 0.0, 0.0, 0.0, 0.0, 0.0, 0.0, 0.0, 0.0, 0.0, 0.0, 0.0, 0.0, 0.0, 0.0, 0.0, 0.0, 0.0, 0.0, 0.0, 2.0, 0.0, 1.0, 0.0, 0.0, 1.0, 1.0, 0.0, 1.0, 1.0, 3.0, 0.0, 0.0, 1.0, 4.0, 8.0, 438.0, 3.0, 1.0, 0.0, 0.0, 0.0, 0.0, 0.0, 0.0, 1.0, 1.0], "bins": [-2303178.5, -2260413.5, -2217648.25, -2174883.25, -2132118.0, -2089353.0, -2046587.875, -2003822.75, -1961057.625, -1918292.5, -1875527.5, -1832762.375, -1789997.25, -1747232.125, -1704467.0, -1661701.875, -1618936.75, -1576171.75, -1533406.625, -1490641.5, -1447876.375, -1405111.25, -1362346.125, -1319581.125, -1276816.0, -1234050.875, -1191285.75, -1148520.625, -1105755.5, -1062990.5, -1020225.3125, -977460.25, -934695.125, -891930.0, -849164.875, -806399.75, -763634.6875, -720869.5625, -678104.4375, -635339.375, -592574.25, -549809.125, -507044.03125, -464278.9375, -421513.8125, -378748.71875, -335983.625, -293218.5, -250453.40625, -207688.296875, -164923.1875, -122158.09375, -79392.984375, -36627.87890625, 6137.2265625, 48902.33203125, 91667.4375, 134432.546875, 177197.65625, 219962.75, 262727.875, 305492.96875, 348258.0625, 391023.1875, 433788.28125]}, "_wandb": {"runtime": 115}}