{"loss": 9.974483489990234, "epoch": 49, "_timestamp": 1708153881.696588, "_runtime": 94.87938714027405, "_step": 49, "gradients/graph_40.bias": {"_type": "histogram", "values": [1.0], "bins": [-2762798.0, -2762798.0]}, "gradients/graph_40.weight": {"_type": "histogram", "values": [1.0, 1.0, 0.0, 0.0, 0.0, 0.0, 0.0, 1.0, 0.0, 0.0, 0.0, 0.0, 0.0, 0.0, 0.0, 0.0, 0.0, 0.0, 1.0, 0.0, 0.0, 1.0, 0.0, 1.0, 0.0, 0.0, 0.0, 0.0, 1.0, 0.0, 0.0, 0.0, 0.0, 0.0, 0.0, 0.0, 0.0, 0.0, 1.0, 0.0, 0.0, 0.0, 0.0, 0.0, 0.0, 0.0, 1.0, 1.0, 0.0, 1.0, 0.0, 0.0, 1.0, 1.0, 2.0, 0.0, 0.0, 2.0, 11.0, 436.0, 3.0, 1.0, 0.0, 3.0], "bins": [-3892274.25, -3826936.25, -3761598.0, -3696260.0, -3630921.75, -3565583.75, -3500245.5, -3434907.5, -3369569.25, -3304231.25, -3238893.0, -3173555.0, -3108217.0, -3042878.75, -2977540.75, -2912202.5, -2846864.5, -2781526.25, -2716188.25, -2650850.0, -2585512.0, -2520173.75, -2454835.75, -2389497.75, -2324159.5, -2258821.5, -2193483.25, -2128145.25, -2062807.125, -1997469.0, -1932130.875, -1866792.75, -1801454.625, -1736116.5, -1670778.375, -1605440.375, -1540102.25, -1474764.125, -1409426.0, -1344087.875, -1278749.75, -1213411.625, -1148073.5, -1082735.375, -1017397.3125, -952059.1875, -886721.0625, -821382.9375, -756044.875, -690706.75, -625368.625, -560030.5, -494692.375, -429354.28125, -364016.15625, -298678.0625, -233339.9375, -168001.828125, -102663.7109375, -37325.59765625, 28012.515625, 93350.625, 158688.75, 224026.859375, 289364.96875]}, "_wandb": {"runtime": 14}}