{"loss": 0.4226630926132202, "epoch": 499, "_timestamp": 1708154603.754295, "_runtime": 220.14427399635315, "_step": 499, "gradients/graph_63.bias": {"_type": "histogram", "values": [1.0], "bins": [-101739.9140625, -101739.9140625]}, "gradients/graph_63.weight": {"_type": "histogram", "values": [28.0, 0.0, 0.0, 0.0, 0.0, 0.0, 0.0, 0.0, 0.0, 0.0, 0.0, 0.0, 0.0, 0.0, 0.0, 0.0, 0.0, 0.0, 0.0, 0.0, 0.0, 0.0, 0.0, 0.0, 0.0, 0.0, 0.0, 0.0, 0.0, 0.0, 0.0, 0.0, 0.0, 0.0, 0.0, 0.0, 0.0, 0.0, 0.0, 0.0, 0.0, 0.0, 0.0, 0.0, 0.0, 0.0, 0.0, 0.0, 0.0, 0.0, 0.0, 0.0, 0.0, 0.0, 0.0, 0.0, 0.0, 0.0, 0.0, 0.0, 0.0, 0.0, 0.0, 36.0], "bins": [-14357150720.0, -13908637696.0, -13460125696.0, -13011612672.0, -12563099648.0, -12114587648.0, -11666074624.0, -11217561600.0, -10769049600.0, -10320536576.0, -9872023552.0, -9423510528.0, -8974998528.0, -8526485504.0, -8077972992.0, -7629459968.0, -7180947456.0, -6732434944.0, -6283921920.0, -5835409408.0, -5386896384.0, -4938383872.0, -4489871360.0, -4041358592.0, -3592845824.0, -3144333056.0, -2695820288.0, -2247307776.0, -1798795008.0, -1350282240.0, -901769600.0, -453256896.0, -4745216.0, 443767488.0, 892280192.0, 1340792832.0, 1789305600.0, 2237818368.0, 2686330880.0, 3134843648.0, 3583356416.0, 4031869184.0, 4480381952.0, 4928894464.0, 5377406976.0, 5825920000.0, 6274432512.0, 6722945536.0, 7171458048.0, 7619970560.0, 8068483584.0, 8516996096.0, 8965509120.0, 9414021120.0, 9862534144.0, 10311047168.0, 10759559168.0, 11208072192.0, 11656585216.0, 12105098240.0, 12553610240.0, 13002123264.0, 13450636288.0, 13899148288.0, 14347661312.0]}, "gradients/graph_62.bias": {"_type": "histogram", "values": [27.0, 1.0, 0.0, 0.0, 0.0, 0.0, 0.0, 0.0, 0.0, 0.0, 0.0, 0.0, 0.0, 0.0, 0.0, 0.0, 0.0, 0.0, 0.0, 0.0, 0.0, 0.0, 0.0, 0.0, 0.0, 0.0, 0.0, 0.0, 0.0, 0.0, 0.0, 0.0, 0.0, 0.0, 0.0, 0.0, 0.0, 0.0, 0.0, 0.0, 0.0, 0.0, 0.0, 0.0, 0.0, 0.0, 0.0, 0.0, 0.0, 0.0, 0.0, 0.0, 0.0, 0.0, 0.0, 0.0, 0.0, 0.0, 0.0, 0.0, 0.0, 0.0, 0.0, 36.0], "bins": [-445042.8125, -431170.9375, -417299.0625, -403427.1875, -389555.3125, -375683.40625, -361811.53125, -347939.65625, -334067.78125, -320195.90625, -306324.03125, -292452.15625, -278580.25, -264708.375, -250836.5, -236964.625, -223092.75, -209220.875, -195349.0, -181477.109375, -167605.234375, -153733.359375, -139861.46875, -125989.59375, -112117.71875, -98245.84375, -84373.9609375, -70502.078125, -56630.203125, -42758.32421875, -28886.4453125, -15014.56640625, -1142.71875, 12729.16015625, 26601.0390625, 40472.91796875, 54344.796875, 68216.671875, 82088.5546875, 95960.4375, 109832.3125, 123704.1875, 137576.0625, 151447.953125, 165319.828125, 179191.703125, 193063.59375, 206935.46875, 220807.34375, 234679.21875, 248551.09375, 262422.96875, 276294.875, 290166.75, 304038.625, 317910.5, 331782.375, 345654.25, 359526.125, 373398.0, 387269.875, 401141.78125, 415013.65625, 428885.53125, 442757.40625]}, "gradients/graph_62.weight": {"_type": "histogram", "values": [28.0, 27.0, 1.0, 0.0, 0.0, 0.0, 23.0, 5.0, 3.0, 25.0, 0.0, 0.0, 0.0, 0.0, 0.0, 0.0, 0.0, 8.0, 331.0, 3671.0, 1296.0, 327.0, 163.0, 154.0, 116.0, 179.0, 167.0, 56.0, 84.0, 196.0, 129.0, 103.0, 292.0, 180.0, 252.0, 108.0, 39.0, 178.0, 287.0, 97.0, 262.0, 123.0, 427.0, 1302.0, 4628.0, 952.0, 21.0, 0.0, 0.0, 0.0, 0.0, 0.0, 0.0, 0.0, 22.0, 14.0, 1.0, 35.0, 0.0, 0.0, 0.0, 0.0, 31.0, 41.0], "bins": [-227603792.0, -220509440.0, -213415072.0, -206320720.0, -199226368.0, -192132016.0, -185037664.0, -177943296.0, -170848944.0, -163754592.0, -156660224.0, -149565872.0, -142471520.0, -135377168.0, -128282808.0, -121188448.0, -114094096.0, -106999744.0, -99905384.0, -92811024.0, -85716672.0, -78622320.0, -71527960.0, -64433604.0, -57339248.0, -50244892.0, -43150536.0, -36056180.0, -28961824.0, -21867468.0, -14773112.0, -7678756.0, -584384.0, 6509972.0, 13604328.0, 20698684.0, 27793040.0, 34887396.0, 41981752.0, 49076108.0, 56170464.0, 63264820.0, 70359176.0, 77453536.0, 84547888.0, 91642240.0, 98736600.0, 105830960.0, 112925312.0, 120019664.0, 127114024.0, 134208384.0, 141302736.0, 148397088.0, 155491456.0, 162585808.0, 169680160.0, 176774512.0, 183868864.0, 190963232.0, 198057584.0, 205151936.0, 212246304.0, 219340656.0, 226435008.0]}, "gradients/graph_60.bias": {"_type": "histogram", "values": [1.0, 0.0, 0.0, 1.0, 2.0, 0.0, 3.0, 0.0, 0.0, 1.0, 0.0, 0.0, 0.0, 1.0, 0.0, 0.0, 0.0, 0.0, 0.0, 1.0, 1.0, 2.0, 0.0, 2.0, 0.0, 0.0, 1.0, 0.0, 0.0, 1.0, 0.0, 1.0, 0.0, 1.0, 4.0, 4.0, 3.0, 49.0, 169.0, 1.0, 0.0, 0.0, 0.0, 0.0, 0.0, 1.0, 1.0, 0.0, 0.0, 1.0, 0.0, 1.0, 1.0, 0.0, 0.0, 0.0, 0.0, 0.0, 0.0, 0.0, 0.0, 0.0, 1.0, 1.0], "bins": [-1209677696.0, -1179681408.0, -1149685120.0, -1119688960.0, -1089692672.0, -1059696384.0, -1029700160.0, -999703872.0, -969707648.0, -939711360.0, -909715072.0, -879718848.0, -849722560.0, -819726336.0, -789730048.0, -759733824.0, -729737536.0, -699741248.0, -669745024.0, -639748736.0, -609752512.0, -579756224.0, -549760000.0, -519763712.0, -489767456.0, -459771200.0, -429774944.0, -399778688.0, -369782400.0, -339786144.0, -309789888.0, -279793632.0, -249797376.0, -219801120.0, -189804864.0, -159808592.0, -129812336.0, -99816080.0, -69819816.0, -39823556.0, -9827296.0, 20168964.0, 50165224.0, 80161488.0, 110157744.0, 140154000.0, 170150272.0, 200146528.0, 230142784.0, 260139040.0, 290135296.0, 320131552.0, 350127808.0, 380124096.0, 410120352.0, 440116608.0, 470112864.0, 500109120.0, 530105376.0, 560101632.0, 590097920.0, 620094144.0, 650090432.0, 680086656.0, 710082944.0]}, "gradients/graph_60.weight": {"_type": "histogram", "values": [1.0, 1.0, 0.0, 2.0, 2.0, 0.0, 0.0, 2.0, 0.0, 0.0, 0.0, 0.0, 0.0, 0.0, 1.0, 2.0, 4.0, 2.0, 3.0, 2.0, 2.0, 2.0, 1.0, 1.0, 1.0, 1.0, 3.0, 1.0, 0.0, 0.0, 0.0, 3.0, 4.0, 2.0, 4.0, 3.0, 0.0, 1.0, 2.0, 2.0, 2.0, 3.0, 1.0, 4.0, 7.0, 3.0, 6.0, 11.0, 18.0, 25.0, 184.0, 97.0, 387.0, 66.0, 67.0, 1424.0, 118058.0, 114.0, 23.0, 8.0, 11.0, 0.0, 0.0, 2.0], "bins": [-22733387776.0, -22330271744.0, -21927157760.0, -21524041728.0, -21120925696.0, -20717809664.0, -20314695680.0, -19911579648.0, -19508463616.0, -19105349632.0, -18702233600.0, -18299117568.0, -17896001536.0, -17492887552.0, -17089771520.0, -16686655488.0, -16283540480.0, -15880425472.0, -15477309440.0, -15074194432.0, -14671078400.0, -14267963392.0, -13864847360.0, -13461732352.0, -13058617344.0, -12655501312.0, -12252386304.0, -11849270272.0, -11446155264.0, -11043039232.0, -10639924224.0, -10236808192.0, -9833693184.0, -9430577152.0, -9027462144.0, -8624346112.0, -8221231104.0, -7818115584.0, -7415000064.0, -7011884544.0, -6608769024.0, -6205653504.0, -5802537984.0, -5399422464.0, -4996306944.0, -4593191936.0, -4190076416.0, -3786960896.0, -3383845376.0, -2980729856.0, -2577614336.0, -2174499072.0, -1771383552.0, -1368268032.0, -965152640.0, -562037184.0, -158921728.0, 244193728.0, 647309184.0, 1050424640.0, 1453540096.0, 1856655616.0, 2259770880.0, 2662886400.0, 3066001920.0]}, "_wandb": {"runtime": 213}}