{"loss": 0.2760111093521118, "epoch": 199, "_timestamp": 1725106799.3821042, "_runtime": 391.71233916282654, "_step": 199, "gradients/8.weight": {"_type": "histogram", "values": [13.0, 0.0, 0.0, 1.0, 0.0, 0.0, 0.0, 0.0, 0.0, 0.0, 0.0, 0.0, 0.0, 0.0, 0.0, 0.0, 0.0, 0.0, 0.0, 0.0, 0.0, 0.0, 0.0, 0.0, 0.0, 0.0, 1.0, 0.0, 0.0, 0.0, 0.0, 0.0, 0.0, 1.0, 0.0, 0.0, 0.0, 0.0, 0.0, 0.0, 0.0, 0.0, 0.0, 0.0, 0.0, 0.0, 0.0, 0.0, 0.0, 0.0, 0.0, 0.0, 0.0, 0.0, 1.0, 1.0, 2.0, 2.0, 0.0, 2.0, 1.0, 1.0, 2.0, 4.0], "bins": [0.0, 120376480.0, 240752960.0, 361129440.0, 481505920.0, 601882368.0, 722258880.0, 842635392.0, 963011840.0, 1083388288.0, 1203764736.0, 1324141312.0, 1444517760.0, 1564894208.0, 1685270784.0, 1805647232.0, 1926023680.0, 2046400128.0, 2166776576.0, 2287153152.0, 2407529472.0, 2527906048.0, 2648282624.0, 2768658944.0, 2889035520.0, 3009412096.0, 3129788416.0, 3250164992.0, 3370541568.0, 3490917888.0, 3611294464.0, 3731670784.0, 3852047360.0, 3972423936.0, 4092800256.0, 4213176832.0, 4333553152.0, 4453929984.0, 4574306304.0, 4694682624.0, 4815058944.0, 4935435776.0, 5055812096.0, 5176188416.0, 5296565248.0, 5416941568.0, 5537317888.0, 5657694720.0, 5778071040.0, 5898447360.0, 6018824192.0, 6139200512.0, 6259576832.0, 6379953664.0, 6500329984.0, 6620706304.0, 6741083136.0, 6861459456.0, 6981835776.0, 7102212096.0, 7222588928.0, 7342965248.0, 7463341568.0, 7583718400.0, 7704094720.0]}, "gradients/8.bias": {"_type": "histogram", "values": [1.0], "bins": [60407.453125, 60407.453125]}, "gradients/6.weight": {"_type": "histogram", "values": [1403.0, 5.0, 0.0, 0.0, 33.0, 20.0, 24.0, 28.0, 7.0, 0.0, 1.0, 0.0, 0.0, 0.0, 0.0, 0.0, 0.0, 0.0, 0.0, 5.0, 11.0, 13.0, 1.0, 0.0, 0.0, 0.0, 0.0, 8.0, 24.0, 41.0, 74.0, 64.0, 43.0, 80.0, 56.0, 44.0, 37.0, 8.0, 2.0, 0.0, 0.0, 0.0, 0.0, 0.0, 0.0, 0.0, 0.0, 0.0, 0.0, 0.0, 0.0, 0.0, 1.0, 3.0, 1.0, 1.0, 0.0, 0.0, 4.0, 0.0, 1.0, 1.0, 1.0, 3.0], "bins": [0.0, 18138586.0, 36277172.0, 54415760.0, 72554344.0, 90692928.0, 108831520.0, 126970104.0, 145108688.0, 163247280.0, 181385856.0, 199524448.0, 217663040.0, 235801616.0, 253940208.0, 272078784.0, 290217376.0, 308355968.0, 326494560.0, 344633120.0, 362771712.0, 380910304.0, 399048896.0, 417187488.0, 435326080.0, 453464640.0, 471603232.0, 489741824.0, 507880416.0, 526019008.0, 544157568.0, 562296192.0, 580434752.0, 598573312.0, 616711936.0, 634850496.0, 652989120.0, 671127680.0, 689266240.0, 707404864.0, 725543424.0, 743682048.0, 761820608.0, 779959168.0, 798097792.0, 816236352.0, 834374976.0, 852513536.0, 870652160.0, 888790720.0, 906929280.0, 925067904.0, 943206464.0, 961345088.0, 979483648.0, 997622208.0, 1015760832.0, 1033899392.0, 1052038016.0, 1070176576.0, 1088315136.0, 1106453760.0, 1124592384.0, 1142730880.0, 1160869504.0]}, "gradients/6.bias": {"_type": "histogram", "values": [13.0, 0.0, 0.0, 0.0, 0.0, 0.0, 0.0, 0.0, 1.0, 0.0, 1.0, 0.0, 0.0, 0.0, 0.0, 0.0, 0.0, 0.0, 0.0, 0.0, 0.0, 0.0, 0.0, 0.0, 0.0, 0.0, 0.0, 0.0, 0.0, 0.0, 0.0, 0.0, 0.0, 0.0, 0.0, 0.0, 0.0, 1.0, 0.0, 0.0, 0.0, 0.0, 0.0, 0.0, 0.0, 0.0, 0.0, 0.0, 0.0, 0.0, 0.0, 0.0, 1.0, 3.0, 1.0, 1.0, 0.0, 0.0, 4.0, 0.0, 1.0, 1.0, 1.0, 3.0], "bins": [0.0, 926.5283813476562, 1853.0567626953125, 2779.585205078125, 3706.113525390625, 4632.64208984375, 5559.17041015625, 6485.69873046875, 7412.22705078125, 8338.755859375, 9265.2841796875, 10191.8125, 11118.3408203125, 12044.869140625, 12971.3974609375, 13897.92578125, 14824.4541015625, 15750.982421875, 16677.51171875, 17604.0390625, 18530.568359375, 19457.095703125, 20383.625, 21310.15234375, 22236.681640625, 23163.208984375, 24089.73828125, 25016.265625, 25942.794921875, 26869.322265625, 27795.8515625, 28722.37890625, 29648.908203125, 30575.4375, 31501.96484375, 32428.494140625, 33355.0234375, 34281.55078125, 35208.078125, 36134.60546875, 37061.13671875, 37987.6640625, 38914.19140625, 39840.71875, 40767.25, 41693.77734375, 42620.3046875, 43546.83203125, 44473.36328125, 45399.890625, 46326.41796875, 47252.94921875, 48179.4765625, 49106.00390625, 50032.53125, 50959.0625, 51885.58984375, 52812.1171875, 53738.64453125, 54665.17578125, 55591.703125, 56518.23046875, 57444.7578125, 58371.2890625, 59297.81640625]}, "gradients/4.weight": {"_type": "histogram", "values": [1.0, 1.0, 0.0, 0.0, 1.0, 0.0, 0.0, 0.0, 0.0, 0.0, 0.0, 0.0, 1.0, 0.0, 1.0, 0.0, 0.0, 1.0, 0.0, 0.0, 1.0, 51.0, 34.0, 4.0, 4.0, 4.0, 1.0, 3.0, 7.0, 4.0, 1.0, 0.0, 0.0, 0.0, 0.0, 0.0, 0.0, 0.0, 0.0, 0.0, 0.0, 0.0, 0.0, 0.0, 0.0, 1.0, 0.0, 0.0, 0.0, 0.0, 0.0, 0.0, 1.0, 0.0, 0.0, 3977.0, 126.0, 7.0, 205.0, 1569.0, 1989.0, 165.0, 29.0, 3.0], "bins": [-4110472960.0, -4036264960.0, -3962056960.0, -3887848960.0, -3813640960.0, -3739432960.0, -3665224704.0, -3591016704.0, -3516808704.0, -3442600704.0, -3368392704.0, -3294184704.0, -3219976704.0, -3145768704.0, -3071560704.0, -2997352704.0, -2923144704.0, -2848936448.0, -2774728448.0, -2700520448.0, -2626312448.0, -2552104448.0, -2477896448.0, -2403688448.0, -2329480448.0, -2255272448.0, -2181064448.0, -2106856320.0, -2032648320.0, -1958440320.0, -1884232192.0, -1810024192.0, -1735815936.0, -1661607936.0, -1587399936.0, -1513191936.0, -1438983936.0, -1364775936.0, -1290567808.0, -1216359808.0, -1142151808.0, -1067943808.0, -993735744.0, -919527744.0, -845319680.0, -771111680.0, -696903680.0, -622695616.0, -548487616.0, -474279584.0, -400071552.0, -325863552.0, -251655520.0, -177447488.0, -103239472.0, -29031448.0, 45176576.0, 119384600.0, 193592624.0, 267800640.0, 342008672.0, 416216704.0, 490424704.0, 564632768.0, 638840768.0]}, "gradients/4.bias": {"_type": "histogram", "values": [1.0, 0.0, 0.0, 0.0, 0.0, 0.0, 0.0, 0.0, 0.0, 0.0, 0.0, 0.0, 0.0, 0.0, 0.0, 0.0, 0.0, 0.0, 0.0, 0.0, 0.0, 0.0, 0.0, 0.0, 0.0, 0.0, 0.0, 0.0, 0.0, 0.0, 0.0, 0.0, 0.0, 0.0, 0.0, 0.0, 0.0, 0.0, 0.0, 0.0, 0.0, 0.0, 0.0, 0.0, 0.0, 0.0, 0.0, 0.0, 0.0, 0.0, 30.0, 0.0, 0.0, 0.0, 0.0, 0.0, 0.0, 0.0, 0.0, 0.0, 10.0, 22.0, 0.0, 1.0], "bins": [-3073437.5, -3012675.0, -2951912.75, -2891150.25, -2830387.75, -2769625.25, -2708863.0, -2648100.5, -2587338.0, -2526575.75, -2465813.25, -2405050.75, -2344288.5, -2283526.0, -2222763.5, -2162001.0, -2101238.75, -2040476.25, -1979713.875, -1918951.375, -1858189.0, -1797426.5, -1736664.125, -1675901.75, -1615139.25, -1554376.875, -1493614.375, -1432852.0, -1372089.625, -1311327.125, -1250564.75, -1189802.25, -1129040.0, -1068277.5, -1007515.0625, -946752.6875, -885990.25, -825227.8125, -764465.375, -703702.9375, -642940.5, -582178.125, -521415.6875, -460653.25, -399890.8125, -339128.40625, -278365.96875, -217603.546875, -156841.125, -96078.703125, -35316.2734375, 25446.15234375, 86208.578125, 146971.0, 207733.4375, 268495.84375, 329258.28125, 390020.71875, 450783.125, 511545.5625, 572308.0, 633070.4375, 693832.8125, 754595.25, 815357.6875]}, "gradients/2.weight": {"_type": "histogram", "values": [1.0, 0.0, 0.0, 0.0, 1.0, 1.0, 0.0, 0.0, 1.0, 3.0, 1.0, 1.0, 1.0, 5.0, 1.0, 4.0, 3.0, 4.0, 1.0, 5.0, 4.0, 6.0, 0.0, 6.0, 8.0, 3.0, 5.0, 8.0, 4.0, 6.0, 4.0, 6.0, 7.0, 5.0, 9.0, 4.0, 6.0, 1.0, 6.0, 2.0, 7.0, 6.0, 3.0, 5.0, 15.0, 17.0, 10.0, 8.0, 13.0, 25.0, 20.0, 17.0, 19.0, 16.0, 26.0, 25.0, 42.0, 82.0, 494.0, 23672.0, 7485.0, 585.0, 28.0, 15.0], "bins": [-3456387072.0, -3398111488.0, -3339835904.0, -3281560064.0, -3223284480.0, -3165008896.0, -3106733312.0, -3048457472.0, -2990181888.0, -2931906304.0, -2873630720.0, -2815355136.0, -2757079296.0, -2698803712.0, -2640528128.0, -2582252544.0, -2523976704.0, -2465701120.0, -2407425536.0, -2349149952.0, -2290874368.0, -2232598528.0, -2174322944.0, -2116047360.0, -2057771776.0, -1999496064.0, -1941220480.0, -1882944768.0, -1824669184.0, -1766393472.0, -1708117888.0, -1649842176.0, -1591566592.0, -1533290880.0, -1475015296.0, -1416739584.0, -1358464000.0, -1300188288.0, -1241912704.0, -1183636992.0, -1125361408.0, -1067085760.0, -1008810112.0, -950534464.0, -892258816.0, -833983232.0, -775707584.0, -717431936.0, -659156288.0, -600880640.0, -542604992.0, -484329376.0, -426053728.0, -367778080.0, -309502464.0, -251226816.0, -192951168.0, -134675520.0, -76399888.0, -18124248.0, 40151392.0, 98427032.0, 156702672.0, 214978304.0, 273253952.0]}, "gradients/2.bias": {"_type": "histogram", "values": [1.0, 0.0, 0.0, 0.0, 1.0, 0.0, 0.0, 0.0, 0.0, 0.0, 0.0, 0.0, 0.0, 0.0, 0.0, 0.0, 0.0, 0.0, 0.0, 0.0, 0.0, 0.0, 0.0, 0.0, 0.0, 0.0, 0.0, 0.0, 0.0, 0.0, 0.0, 0.0, 0.0, 0.0, 0.0, 0.0, 0.0, 0.0, 0.0, 0.0, 0.0, 0.0, 0.0, 0.0, 0.0, 0.0, 0.0, 0.0, 0.0, 0.0, 0.0, 0.0, 1.0, 1.0, 0.0, 0.0, 1.0, 0.0, 5.0, 1.0, 0.0, 112.0, 4.0, 1.0], "bins": [-170584048.0, -167674768.0, -164765488.0, -161856208.0, -158946944.0, -156037664.0, -153128384.0, -150219104.0, -147309824.0, -144400544.0, -141491264.0, -138581984.0, -135672704.0, -132763432.0, -129854160.0, -126944880.0, -124035600.0, -121126320.0, -118217040.0, -115307768.0, -112398488.0, -109489208.0, -106579936.0, -103670656.0, -100761376.0, -97852096.0, -94942816.0, -92033544.0, -89124264.0, -86214984.0, -83305712.0, -80396432.0, -77487152.0, -74577872.0, -71668592.0, -68759312.0, -65850040.0, -62940760.0, -60031480.0, -57122204.0, -54212928.0, -51303648.0, -48394368.0, -45485092.0, -42575816.0, -39666536.0, -36757256.0, -33847980.0, -30938702.0, -28029424.0, -25120146.0, -22210868.0, -19301590.0, -16392312.0, -13483034.0, -10573756.0, -7664478.0, -4755200.0, -1845922.0, 1063356.0, 3972634.0, 6881912.0, 9791190.0, 12700468.0, 15609746.0]}, "gradients/0.weight": {"_type": "histogram", "values": [3.0, 0.0, 5.0, 6.0, 8.0, 9.0, 11.0, 41.0, 68.0, 139.0, 416.0, 911.0, 116781.0, 1110.0, 300.0, 138.0, 108.0, 109.0, 98.0, 85.0, 51.0, 43.0, 37.0, 33.0, 14.0, 7.0, 6.0, 4.0, 8.0, 5.0, 1.0, 4.0, 1.0, 2.0, 2.0, 1.0, 2.0, 1.0, 1.0, 3.0, 1.0, 0.0, 1.0, 0.0, 1.0, 0.0, 0.0, 0.0, 0.0, 0.0, 0.0, 0.0, 0.0, 0.0, 0.0, 0.0, 0.0, 0.0, 0.0, 0.0, 0.0, 0.0, 0.0, 1.0], "bins": [-2683964160.0, -2470681856.0, -2257399808.0, -2044117632.0, -1830835456.0, -1617553152.0, -1404270976.0, -1190988800.0, -977706624.0, -764424448.0, -551142272.0, -337860032.0, -124577856.0, 88704336.0, 301986528.0, 515268736.0, 728550912.0, 941833088.0, 1155115264.0, 1368397440.0, 1581679616.0, 1794961920.0, 2008244096.0, 2221526272.0, 2434808320.0, 2648090624.0, 2861372928.0, 3074654976.0, 3287937280.0, 3501219328.0, 3714501632.0, 3927783680.0, 4141065728.0, 4354348032.0, 4567630336.0, 4780912128.0, 4994194432.0, 5207476736.0, 5420759040.0, 5634040832.0, 5847323136.0, 6060605440.0, 6273887744.0, 6487170048.0, 6700451840.0, 6913734144.0, 7127016448.0, 7340298752.0, 7553581056.0, 7766862848.0, 7980145152.0, 8193427456.0, 8406709760.0, 8619992064.0, 8833273856.0, 9046555648.0, 9259838464.0, 9473120256.0, 9686403072.0, 9899684864.0, 10112966656.0, 10326249472.0, 10539531264.0, 10752814080.0, 10966095872.0]}, "gradients/0.bias": {"_type": "histogram", "values": [2.0, 0.0, 0.0, 0.0, 1.0, 0.0, 2.0, 1.0, 0.0, 1.0, 1.0, 1.0, 3.0, 9.0, 4.0, 9.0, 3.0, 35.0, 35.0, 22.0, 18.0, 21.0, 20.0, 18.0, 8.0, 15.0, 4.0, 6.0, 2.0, 4.0, 2.0, 0.0, 2.0, 0.0, 1.0, 1.0, 0.0, 1.0, 1.0, 0.0, 1.0, 0.0, 0.0, 0.0, 0.0, 1.0, 0.0, 0.0, 0.0, 0.0, 0.0, 0.0, 0.0, 0.0, 0.0, 0.0, 0.0, 0.0, 0.0, 0.0, 0.0, 0.0, 0.0, 1.0], "bins": [-754778624.0, -702315712.0, -649852800.0, -597389952.0, -544927040.0, -492464128.0, -440001216.0, -387538336.0, -335075424.0, -282612512.0, -230149632.0, -177686720.0, -125223824.0, -72760928.0, -20298024.0, 32164876.0, 84627776.0, 137090672.0, 189553568.0, 242016480.0, 294479360.0, 346942272.0, 399405184.0, 451868064.0, 504330976.0, 556793856.0, 609256768.0, 661719680.0, 714182592.0, 766645504.0, 819108352.0, 871571264.0, 924034176.0, 976497088.0, 1028960000.0, 1081422848.0, 1133885824.0, 1186348672.0, 1238811520.0, 1291274496.0, 1343737344.0, 1396200320.0, 1448663168.0, 1501126016.0, 1553588992.0, 1606051840.0, 1658514816.0, 1710977664.0, 1763440640.0, 1815903488.0, 1868366336.0, 1920829312.0, 1973292160.0, 2025755136.0, 2078217984.0, 2130680832.0, 2183143680.0, 2235606784.0, 2288069632.0, 2340532480.0, 2392995328.0, 2445458176.0, 2497921280.0, 2550384128.0, 2602846976.0]}, "_wandb": {"runtime": 392}}