{"loss": 0.255430668592453, "epoch": 199, "_timestamp": 1708161179.662611, "_runtime": 147.771723985672, "_step": 199, "gradients/graph_158.bias": {"_type": "histogram", "values": [1.0], "bins": [-140457.90625, -140457.90625]}, "gradients/graph_158.weight": {"_type": "histogram", "values": [1.0, 0.0, 0.0, 0.0, 0.0, 0.0, 1.0, 0.0, 0.0, 0.0, 1.0, 2.0, 0.0, 0.0, 0.0, 0.0, 0.0, 0.0, 0.0, 2.0, 2.0, 0.0, 0.0, 1.0, 1.0, 1.0, 1.0, 0.0, 1.0, 0.0, 0.0, 0.0, 0.0, 0.0, 0.0, 0.0, 0.0, 0.0, 0.0, 0.0, 0.0, 0.0, 0.0, 2.0, 1.0, 0.0, 0.0, 0.0, 2.0, 1.0, 0.0, 0.0, 2.0, 1.0, 0.0, 0.0, 0.0, 0.0, 0.0, 0.0, 0.0, 0.0, 0.0, 9.0], "bins": [-29680494592.0, -29216737280.0, -28752979968.0, -28289220608.0, -27825463296.0, -27361705984.0, -26897948672.0, -26434191360.0, -25970432000.0, -25506674688.0, -25042917376.0, -24579160064.0, -24115402752.0, -23651643392.0, -23187886080.0, -22724128768.0, -22260371456.0, -21796614144.0, -21332854784.0, -20869097472.0, -20405340160.0, -19941582848.0, -19477825536.0, -19014066176.0, -18550308864.0, -18086551552.0, -17622794240.0, -17159035904.0, -16695278592.0, -16231520256.0, -15767762944.0, -15304004608.0, -14840247296.0, -14376489984.0, -13912731648.0, -13448974336.0, -12985216000.0, -12521458688.0, -12057701376.0, -11593943040.0, -11130185728.0, -10666427392.0, -10202670080.0, -9738912768.0, -9275154432.0, -8811397120.0, -8347639296.0, -7883881472.0, -7420123648.0, -6956365824.0, -6492608000.0, -6028850688.0, -5565092864.0, -5101335040.0, -4637577216.0, -4173819648.0, -3710061824.0, -3246304000.0, -2782546432.0, -2318788608.0, -1855030912.0, -1391273216.0, -927515456.0, -463757728.0, 0.0]}, "gradients/graph_156.bias": {"_type": "histogram", "values": [3.0, 1.0, 0.0, 1.0, 3.0, 1.0, 0.0, 2.0, 1.0, 2.0, 0.0, 0.0, 0.0, 0.0, 0.0, 0.0, 0.0, 0.0, 0.0, 0.0, 0.0, 0.0, 0.0, 0.0, 0.0, 0.0, 0.0, 1.0, 1.0, 0.0, 0.0, 0.0, 1.0, 0.0, 0.0, 0.0, 1.0, 1.0, 1.0, 0.0, 0.0, 2.0, 0.0, 0.0, 0.0, 0.0, 0.0, 0.0, 0.0, 0.0, 0.0, 0.0, 0.0, 0.0, 0.0, 0.0, 0.0, 0.0, 0.0, 9.0, 0.0, 0.0, 0.0, 1.0], "bins": [-130964.40625, -128781.1484375, -126597.890625, -124414.6328125, -122231.375, -120048.1171875, -117864.859375, -115681.6015625, -113498.34375, -111315.0859375, -109131.828125, -106948.5703125, -104765.3125, -102582.0546875, -100398.796875, -98215.5390625, -96032.28125, -93849.015625, -91665.7578125, -89482.5, -87299.2421875, -85115.984375, -82932.7265625, -80749.46875, -78566.2109375, -76382.953125, -74199.6953125, -72016.4375, -69833.1796875, -67649.921875, -65466.6640625, -63283.40625, -61100.14453125, -58916.88671875, -56733.62890625, -54550.37109375, -52367.109375, -50183.8515625, -48000.59375, -45817.3359375, -43634.078125, -41450.8203125, -39267.5625, -37084.3046875, -34901.046875, -32717.7890625, -30534.53125, -28351.2734375, -26168.015625, -23984.755859375, -21801.498046875, -19618.240234375, -17434.982421875, -15251.724609375, -13068.466796875, -10885.2080078125, -8701.9501953125, -6518.6923828125, -4335.43408203125, -2152.176025390625, 31.08203125, 2214.340087890625, 4397.59814453125, 6580.8564453125, 8764.1142578125]}, "gradients/graph_156.weight": {"_type": "histogram", "values": [12.0, 36.0, 42.0, 34.0, 28.0, 45.0, 42.0, 46.0, 34.0, 50.0, 59.0, 30.0, 12.0, 3.0, 2.0, 1.0, 0.0, 0.0, 0.0, 0.0, 0.0, 0.0, 0.0, 0.0, 0.0, 0.0, 0.0, 5.0, 25.0, 27.0, 8.0, 2.0, 4.0, 21.0, 16.0, 4.0, 18.0, 25.0, 47.0, 20.0, 7.0, 10.0, 56.0, 4.0, 6.0, 4.0, 11.0, 7.0, 6.0, 3.0, 10.0, 10.0, 17.0, 33.0, 20.0, 16.0, 14.0, 14.0, 0.0, 1059.0, 6.0, 3.0, 0.0, 34.0], "bins": [-3052492544.0, -3001605632.0, -2950718720.0, -2899831808.0, -2848944640.0, -2798057728.0, -2747170816.0, -2696283904.0, -2645396992.0, -2594510080.0, -2543622912.0, -2492736000.0, -2441849088.0, -2390962176.0, -2340075264.0, -2289188352.0, -2238301184.0, -2187414272.0, -2136527360.0, -2085640448.0, -2034753536.0, -1983866496.0, -1932979584.0, -1882092672.0, -1831205632.0, -1780318720.0, -1729431808.0, -1678544896.0, -1627657856.0, -1576770944.0, -1525884032.0, -1474996992.0, -1424110208.0, -1373223296.0, -1322336256.0, -1271449344.0, -1220562432.0, -1169675392.0, -1118788480.0, -1067901504.0, -1017014592.0, -966127616.0, -915240704.0, -864353728.0, -813466752.0, -762579840.0, -711692864.0, -660805888.0, -609918976.0, -559032000.0, -508145056.0, -457258112.0, -406371136.0, -355484192.0, -304597248.0, -253710304.0, -202823344.0, -151936384.0, -101049440.0, -50162488.0, 724464.0, 51611416.0, 102498368.0, 153385312.0, 204272272.0]}, "gradients/graph_154.bias": {"_type": "histogram", "values": [5.0, 34.0, 0.0, 2.0, 21.0, 0.0, 0.0, 0.0, 0.0, 0.0, 0.0, 0.0, 0.0, 0.0, 0.0, 0.0, 0.0, 0.0, 0.0, 0.0, 0.0, 0.0, 1.0, 0.0, 0.0, 0.0, 0.0, 0.0, 0.0, 0.0, 0.0, 0.0, 0.0, 0.0, 0.0, 0.0, 0.0, 0.0, 0.0, 0.0, 0.0, 0.0, 0.0, 0.0, 0.0, 0.0, 0.0, 0.0, 0.0, 0.0, 0.0, 0.0, 0.0, 0.0, 0.0, 0.0, 0.0, 0.0, 0.0, 0.0, 0.0, 0.0, 0.0, 1.0], "bins": [-1501022.75, -1141589.125, -782155.4375, -422721.78125, -63288.125, 296145.53125, 655579.1875, 1015012.875, 1374446.5, 1733880.125, 2093313.75, 2452747.5, 2812181.0, 3171614.75, 3531048.5, 3890482.0, 4249916.0, 4609349.5, 4968783.0, 5328216.5, 5687650.5, 6047084.0, 6406517.5, 6765951.5, 7125385.0, 7484818.5, 7844252.5, 8203686.0, 8563120.0, 8922553.0, 9281987.0, 9641421.0, 10000855.0, 10360289.0, 10719722.0, 11079156.0, 11438590.0, 11798023.0, 12157457.0, 12516891.0, 12876324.0, 13235758.0, 13595192.0, 13954625.0, 14314059.0, 14673493.0, 15032926.0, 15392360.0, 15751794.0, 16111227.0, 16470661.0, 16830094.0, 17189528.0, 17548962.0, 17908396.0, 18267830.0, 18627262.0, 18986696.0, 19346130.0, 19705564.0, 20064998.0, 20424432.0, 20783864.0, 21143298.0, 21502732.0]}, "gradients/graph_154.weight": {"_type": "histogram", "values": [18.0, 846.0, 4011.0, 250.0, 2817.0, 0.0, 0.0, 0.0, 0.0, 0.0, 0.0, 0.0, 1.0, 3.0, 4.0, 99.0, 7.0, 2.0, 3.0, 3.0, 2.0, 0.0, 1.0, 0.0, 0.0, 0.0, 0.0, 0.0, 0.0, 0.0, 0.0, 1.0, 1.0, 0.0, 2.0, 0.0, 0.0, 2.0, 1.0, 6.0, 14.0, 66.0, 14.0, 3.0, 3.0, 1.0, 1.0, 1.0, 0.0, 1.0, 0.0, 2.0, 0.0, 1.0, 0.0, 3.0, 0.0, 1.0, 0.0, 0.0, 0.0, 0.0, 0.0, 1.0], "bins": [-1218639104.0, -926112896.0, -633586624.0, -341060384.0, -48534144.0, 243992096.0, 536518336.0, 829044608.0, 1121570816.0, 1414097024.0, 1706623232.0, 1999149568.0, 2291675648.0, 2584201984.0, 2876728320.0, 3169254400.0, 3461780736.0, 3754307072.0, 4046833152.0, 4339359232.0, 4631885824.0, 4924411904.0, 5216937984.0, 5509464576.0, 5801990656.0, 6094516736.0, 6387043328.0, 6679569408.0, 6972095488.0, 7264622080.0, 7557148160.0, 7849674240.0, 8142199808.0, 8434725888.0, 8727251968.0, 9019778048.0, 9312305152.0, 9604831232.0, 9897357312.0, 10189883392.0, 10482409472.0, 10774935552.0, 11067462656.0, 11359988736.0, 11652514816.0, 11945040896.0, 12237566976.0, 12530093056.0, 12822620160.0, 13115146240.0, 13407672320.0, 13700198400.0, 13992724480.0, 14285250560.0, 14577776640.0, 14870303744.0, 15162829824.0, 15455355904.0, 15747881984.0, 16040408064.0, 16332934144.0, 16625461248.0, 16917987328.0, 17210513408.0, 17503039488.0]}, "gradients/graph_152.bias": {"_type": "histogram", "values": [110.0, 6.0, 1.0, 3.0, 2.0, 0.0, 1.0, 0.0, 0.0, 2.0, 1.0, 0.0, 0.0, 0.0, 0.0, 0.0, 0.0, 0.0, 0.0, 0.0, 0.0, 0.0, 0.0, 0.0, 0.0, 0.0, 0.0, 0.0, 0.0, 0.0, 0.0, 0.0, 0.0, 0.0, 0.0, 0.0, 0.0, 0.0, 0.0, 0.0, 0.0, 0.0, 1.0, 0.0, 0.0, 0.0, 0.0, 0.0, 0.0, 0.0, 0.0, 0.0, 0.0, 0.0, 0.0, 0.0, 0.0, 0.0, 0.0, 0.0, 0.0, 0.0, 0.0, 1.0], "bins": [-22575596.0, -9204004.0, 4167588.0, 17539180.0, 30910772.0, 44282364.0, 57653956.0, 71025552.0, 84397136.0, 97768736.0, 111140320.0, 124511920.0, 137883504.0, 151255104.0, 164626688.0, 177998288.0, 191369872.0, 204741472.0, 218113056.0, 231484656.0, 244856240.0, 258227840.0, 271599424.0, 284971008.0, 298342624.0, 311714208.0, 325085792.0, 338457376.0, 351828992.0, 365200576.0, 378572160.0, 391943744.0, 405315328.0, 418686912.0, 432058496.0, 445430112.0, 458801696.0, 472173280.0, 485544896.0, 498916480.0, 512288064.0, 525659648.0, 539031232.0, 552402816.0, 565774464.0, 579146048.0, 592517632.0, 605889216.0, 619260800.0, 632632384.0, 646003968.0, 659375552.0, 672747136.0, 686118784.0, 699490368.0, 712861952.0, 726233536.0, 739605120.0, 752976704.0, 766348288.0, 779719936.0, 793091520.0, 806463104.0, 819834688.0, 833206272.0]}, "gradients/graph_152.weight": {"_type": "histogram", "values": [7295.0, 22839.0, 1192.0, 547.0, 138.0, 67.0, 81.0, 99.0, 85.0, 51.0, 40.0, 37.0, 30.0, 19.0, 17.0, 20.0, 16.0, 12.0, 11.0, 6.0, 6.0, 2.0, 9.0, 6.0, 12.0, 3.0, 3.0, 6.0, 3.0, 7.0, 3.0, 5.0, 10.0, 3.0, 6.0, 7.0, 6.0, 7.0, 3.0, 3.0, 3.0, 5.0, 4.0, 1.0, 4.0, 2.0, 1.0, 4.0, 5.0, 4.0, 2.0, 1.0, 4.0, 3.0, 1.0, 0.0, 3.0, 2.0, 0.0, 2.0, 1.0, 1.0, 2.0, 1.0], "bins": [-249350688.0, -101641408.0, 46067872.0, 193777152.0, 341486432.0, 489195712.0, 636904960.0, 784614272.0, 932323584.0, 1080032768.0, 1227742080.0, 1375451392.0, 1523160704.0, 1670870016.0, 1818579200.0, 1966288512.0, 2113997824.0, 2261707008.0, 2409416448.0, 2557125632.0, 2704834816.0, 2852544256.0, 3000253440.0, 3147962880.0, 3295672064.0, 3443381248.0, 3591090688.0, 3738799872.0, 3886509056.0, 4034218496.0, 4181927680.0, 4329636864.0, 4477345792.0, 4625055232.0, 4772764160.0, 4920473600.0, 5068183040.0, 5215891968.0, 5363601408.0, 5511310848.0, 5659020288.0, 5806729216.0, 5954438656.0, 6102148096.0, 6249857024.0, 6397566464.0, 6545275904.0, 6692984832.0, 6840694272.0, 6988403712.0, 7136112640.0, 7283822080.0, 7431531520.0, 7579240448.0, 7726949888.0, 7874659328.0, 8022368256.0, 8170077696.0, 8317787136.0, 8465496576.0, 8613206016.0, 8760914944.0, 8908623872.0, 9056333824.0, 9204042752.0]}, "gradients/graph_150.bias": {"_type": "histogram", "values": [1.0, 0.0, 0.0, 0.0, 1.0, 1.0, 1.0, 0.0, 0.0, 0.0, 0.0, 1.0, 1.0, 0.0, 2.0, 0.0, 1.0, 1.0, 3.0, 0.0, 7.0, 2.0, 0.0, 3.0, 2.0, 2.0, 5.0, 2.0, 6.0, 4.0, 6.0, 8.0, 4.0, 8.0, 6.0, 9.0, 11.0, 10.0, 15.0, 8.0, 11.0, 11.0, 13.0, 15.0, 15.0, 10.0, 12.0, 3.0, 2.0, 8.0, 5.0, 5.0, 5.0, 2.0, 2.0, 0.0, 2.0, 0.0, 2.0, 0.0, 1.0, 0.0, 0.0, 1.0], "bins": [-6872980992.0, -6724681728.0, -6576381952.0, -6428082688.0, -6279783424.0, -6131484160.0, -5983184896.0, -5834885120.0, -5686585856.0, -5538286592.0, -5389986816.0, -5241687552.0, -5093388288.0, -4945089024.0, -4796789760.0, -4648489984.0, -4500190720.0, -4351891456.0, -4203591936.0, -4055292416.0, -3906993152.0, -3758693888.0, -3610394368.0, -3462094848.0, -3313795584.0, -3165496320.0, -3017196800.0, -2868897280.0, -2720598016.0, -2572298752.0, -2423999232.0, -2275699712.0, -2127399936.0, -1979100544.0, -1830801152.0, -1682501760.0, -1534202368.0, -1385902976.0, -1237603584.0, -1089304192.0, -941004800.0, -792705408.0, -644406016.0, -496106624.0, -347807232.0, -199507840.0, -51208448.0, 97090944.0, 245390336.0, 393689728.0, 541989120.0, 690288512.0, 838587904.0, 986887296.0, 1135186688.0, 1283486080.0, 1431785472.0, 1580084864.0, 1728384256.0, 1876683648.0, 2024983040.0, 2173282304.0, 2321581824.0, 2469881344.0, 2618180608.0]}, "gradients/graph_150.weight": {"_type": "histogram", "values": [1.0, 0.0, 1.0, 1.0, 0.0, 1.0, 2.0, 0.0, 1.0, 2.0, 0.0, 1.0, 0.0, 0.0, 0.0, 1.0, 1.0, 3.0, 2.0, 2.0, 2.0, 2.0, 7.0, 4.0, 7.0, 4.0, 9.0, 7.0, 7.0, 9.0, 14.0, 19.0, 13.0, 26.0, 26.0, 26.0, 37.0, 42.0, 52.0, 79.0, 91.0, 104.0, 147.0, 236.0, 340.0, 564.0, 2071.0, 115821.0, 448.0, 149.0, 88.0, 38.0, 21.0, 18.0, 15.0, 2.0, 2.0, 1.0, 5.0, 1.0, 1.0, 0.0, 0.0, 2.0], "bins": [-10184230912.0, -9968335872.0, -9752440832.0, -9536545792.0, -9320650752.0, -9104755712.0, -8888860672.0, -8672965632.0, -8457070080.0, -8241175040.0, -8025280000.0, -7809384960.0, -7593489408.0, -7377594368.0, -7161699328.0, -6945804288.0, -6729909248.0, -6514014208.0, -6298119168.0, -6082224128.0, -5866329088.0, -5650433536.0, -5434538496.0, -5218643456.0, -5002748416.0, -4786853376.0, -4570958336.0, -4355063296.0, -4139168000.0, -3923272960.0, -3707377664.0, -3491482624.0, -3275588096.0, -3059693056.0, -2843798016.0, -2627902720.0, -2412007680.0, -2196112640.0, -1980217472.0, -1764322304.0, -1548427264.0, -1332532224.0, -1116637056.0, -900741952.0, -684846848.0, -468951744.0, -253056640.0, -37161536.0, 178733568.0, 394628672.0, 610523776.0, 826418880.0, 1042313984.0, 1258209024.0, 1474104192.0, 1689999360.0, 1905894400.0, 2121789440.0, 2337684480.0, 2553579776.0, 2769474816.0, 2985369856.0, 3201265152.0, 3417160192.0, 3633055232.0]}, "_wandb": {"runtime": 127}}