{"loss": 0.8258731961250305, "epoch": 499, "_timestamp": 1708159073.09297, "_runtime": 302.7715449333191, "_step": 499, "gradients/graph_76.bias": {"_type": "histogram", "values": [1.0], "bins": [92086.0, 92086.0]}, "gradients/graph_76.weight": {"_type": "histogram", "values": [1.0, 1.0, 1.0, 0.0, 1.0, 0.0, 0.0, 0.0, 0.0, 2.0, 1.0, 0.0, 2.0, 1.0, 1.0, 2.0, 1.0, 0.0, 1.0, 1.0, 2.0, 0.0, 1.0, 2.0, 2.0, 1.0, 11.0, 1.0, 3.0, 2.0, 1.0, 2.0, 0.0, 1.0, 0.0, 2.0, 1.0, 1.0, 0.0, 0.0, 0.0, 0.0, 0.0, 0.0, 0.0, 0.0, 0.0, 0.0, 1.0, 2.0, 2.0, 2.0, 2.0, 0.0, 0.0, 0.0, 1.0, 1.0, 0.0, 0.0, 0.0, 1.0, 1.0, 2.0], "bins": [-1790325888.0, -1722890880.0, -1655455744.0, -1588020736.0, -1520585728.0, -1453150592.0, -1385715584.0, -1318280448.0, -1250845440.0, -1183410432.0, -1115975296.0, -1048540288.0, -981105216.0, -913670144.0, -846235136.0, -778800064.0, -711364992.0, -643929920.0, -576494848.0, -509059840.0, -441624768.0, -374189696.0, -306754656.0, -239319600.0, -171884544.0, -104449488.0, -37014432.0, 30420624.0, 97855680.0, 165290736.0, 232725792.0, 300160832.0, 367596032.0, 435031104.0, 502466144.0, 569901184.0, 637336256.0, 704771328.0, 772206336.0, 839641408.0, 907076480.0, 974511552.0, 1041946624.0, 1109381632.0, 1176816640.0, 1244251776.0, 1311686784.0, 1379121920.0, 1446556928.0, 1513991936.0, 1581427072.0, 1648862080.0, 1716297216.0, 1783732224.0, 1851167232.0, 1918602368.0, 1986037376.0, 2053472384.0, 2120907520.0, 2188342528.0, 2255777536.0, 2323212544.0, 2390647808.0, 2458082816.0, 2525517824.0]}, "gradients/graph_73.bias": {"_type": "histogram", "values": [1.0, 0.0, 0.0, 0.0, 0.0, 2.0, 0.0, 0.0, 0.0, 0.0, 0.0, 0.0, 0.0, 0.0, 0.0, 0.0, 0.0, 1.0, 0.0, 0.0, 0.0, 0.0, 0.0, 0.0, 0.0, 1.0, 0.0, 0.0, 0.0, 0.0, 0.0, 0.0, 0.0, 0.0, 0.0, 0.0, 0.0, 0.0, 0.0, 0.0, 0.0, 0.0, 0.0, 0.0, 0.0, 0.0, 0.0, 1.0, 0.0, 0.0, 0.0, 0.0, 0.0, 0.0, 9.0, 3.0, 9.0, 13.0, 13.0, 5.0, 3.0, 2.0, 0.0, 1.0], "bins": [-6317190.0, -6200257.5, -6083325.5, -5966393.0, -5849461.0, -5732528.5, -5615596.5, -5498664.0, -5381732.0, -5264799.5, -5147867.5, -5030935.0, -4914002.5, -4797070.5, -4680138.0, -4563206.0, -4446273.5, -4329341.5, -4212409.0, -4095476.75, -3978544.5, -3861612.25, -3744680.0, -3627747.75, -3510815.5, -3393883.25, -3276951.0, -3160018.5, -3043086.25, -2926154.0, -2809221.75, -2692289.5, -2575357.5, -2458425.0, -2341492.75, -2224560.5, -2107628.25, -1990696.0, -1873763.75, -1756831.5, -1639899.25, -1522966.875, -1406034.625, -1289102.375, -1172170.125, -1055237.875, -938305.5625, -821373.25, -704441.0, -587508.75, -470576.4375, -353644.1875, -236711.90625, -119779.6328125, -2847.359375, 114084.9140625, 231017.1875, 347949.46875, 464881.75, 581814.0, 698746.25, 815678.5625, 932610.8125, 1049543.125, 1166475.375]}, "gradients/graph_73.weight": {"_type": "histogram", "values": [1.0, 0.0, 0.0, 0.0, 1.0, 0.0, 0.0, 0.0, 1.0, 0.0, 1.0, 1.0, 1.0, 2.0, 4.0, 0.0, 4.0, 1.0, 5.0, 7.0, 8.0, 10.0, 13.0, 8.0, 11.0, 17.0, 9.0, 17.0, 15.0, 17.0, 16.0, 20.0, 19.0, 24.0, 24.0, 30.0, 30.0, 30.0, 42.0, 56.0, 65.0, 88.0, 81.0, 97.0, 443.0, 2675.0, 2118.0, 6873.0, 2154.0, 878.0, 338.0, 84.0, 15.0, 7.0, 3.0, 4.0, 1.0, 3.0, 2.0, 3.0, 4.0, 0.0, 0.0, 3.0], "bins": [-367439616.0, -359694176.0, -351948736.0, -344203328.0, -336457888.0, -328712448.0, -320967040.0, -313221600.0, -305476160.0, -297730720.0, -289985280.0, -282239872.0, -274494432.0, -266748992.0, -259003568.0, -251258144.0, -243512704.0, -235767264.0, -228021840.0, -220276416.0, -212530976.0, -204785536.0, -197040112.0, -189294688.0, -181549248.0, -173803808.0, -166058384.0, -158312960.0, -150567520.0, -142822080.0, -135076656.0, -127331224.0, -119585800.0, -111840368.0, -104094936.0, -96349504.0, -88604072.0, -80858640.0, -73113208.0, -65367776.0, -57622344.0, -49876912.0, -42131480.0, -34386048.0, -26640616.0, -18895184.0, -11149752.0, -3404320.0, 4341112.0, 12086544.0, 19831976.0, 27577408.0, 35322840.0, 43068272.0, 50813704.0, 58559136.0, 66304568.0, 74050000.0, 81795432.0, 89540864.0, 97286296.0, 105031728.0, 112777160.0, 120522592.0, 128268024.0]}, "gradients/graph_70.bias": {"_type": "histogram", "values": [1.0, 2.0, 3.0, 22.0, 23.0, 24.0, 24.0, 30.0, 16.0, 11.0, 8.0, 8.0, 4.0, 4.0, 5.0, 7.0, 5.0, 6.0, 6.0, 4.0, 1.0, 1.0, 2.0, 0.0, 2.0, 5.0, 2.0, 3.0, 2.0, 4.0, 0.0, 3.0, 3.0, 4.0, 3.0, 1.0, 0.0, 2.0, 0.0, 1.0, 0.0, 0.0, 0.0, 0.0, 0.0, 0.0, 0.0, 0.0, 1.0, 1.0, 0.0, 0.0, 0.0, 1.0, 0.0, 0.0, 0.0, 0.0, 0.0, 0.0, 0.0, 0.0, 0.0, 1.0], "bins": [-28337072.0, -17443858.0, -6550644.0, 4342570.0, 15235784.0, 26128998.0, 37022212.0, 47915424.0, 58808640.0, 69701856.0, 80595072.0, 91488280.0, 102381496.0, 113274712.0, 124167920.0, 135061136.0, 145954352.0, 156847568.0, 167740784.0, 178634000.0, 189527200.0, 200420416.0, 211313632.0, 222206848.0, 233100064.0, 243993280.0, 254886496.0, 265779712.0, 276672928.0, 287566144.0, 298459360.0, 309352576.0, 320245760.0, 331138976.0, 342032192.0, 352925408.0, 363818624.0, 374711840.0, 385605056.0, 396498272.0, 407391488.0, 418284672.0, 429177888.0, 440071104.0, 450964320.0, 461857536.0, 472750752.0, 483643968.0, 494537184.0, 505430400.0, 516323616.0, 527216832.0, 538110016.0, 549003264.0, 559896448.0, 570789696.0, 581682880.0, 592576128.0, 603469312.0, 614362560.0, 625255744.0, 636148992.0, 647042176.0, 657935424.0, 668828608.0]}, "gradients/graph_70.weight": {"_type": "histogram", "values": [1.0, 0.0, 0.0, 0.0, 0.0, 0.0, 0.0, 0.0, 1.0, 0.0, 1.0, 0.0, 1.0, 1.0, 2.0, 2.0, 1.0, 1.0, 3.0, 2.0, 1.0, 5.0, 7.0, 11.0, 19.0, 48.0, 83.0, 130.0, 160.0, 393.0, 2278.0, 115729.0, 795.0, 404.0, 192.0, 98.0, 47.0, 31.0, 28.0, 18.0, 17.0, 11.0, 14.0, 10.0, 10.0, 5.0, 5.0, 0.0, 3.0, 1.0, 0.0, 2.0, 2.0, 1.0, 0.0, 1.0, 0.0, 0.0, 0.0, 0.0, 0.0, 0.0, 0.0, 1.0], "bins": [-844067328.0, -816930112.0, -789792832.0, -762655616.0, -735518400.0, -708381120.0, -681243904.0, -654106688.0, -626969472.0, -599832192.0, -572694976.0, -545557760.0, -518420480.0, -491283264.0, -464146016.0, -437008800.0, -409871552.0, -382734304.0, -355597088.0, -328459840.0, -301322624.0, -274185376.0, -247048128.0, -219910896.0, -192773664.0, -165636432.0, -138499200.0, -111361952.0, -84224720.0, -57087484.0, -29950248.0, -2813012.0, 24324160.0, 51461396.0, 78598632.0, 105735872.0, 132873104.0, 160010336.0, 187147584.0, 214284816.0, 241422048.0, 268559296.0, 295696512.0, 322833760.0, 349971008.0, 377108224.0, 404245472.0, 431382688.0, 458519936.0, 485657184.0, 512794400.0, 539931648.0, 567068864.0, 594206144.0, 621343360.0, 648480576.0, 675617792.0, 702755072.0, 729892288.0, 757029504.0, 784166784.0, 811304000.0, 838441216.0, 865578496.0, 892715712.0]}, "_wandb": {"runtime": 295}}