{"loss": 0.25184834003448486, "epoch": 199, "_timestamp": 1708160805.399059, "_runtime": 173.98852610588074, "_step": 199, "gradients/graph_137.bias": {"_type": "histogram", "values": [1.0], "bins": [-78173.9140625, -78173.9140625]}, "gradients/graph_137.weight": {"_type": "histogram", "values": [3.0, 3.0, 2.0, 1.0, 2.0, 2.0, 0.0, 1.0, 1.0, 0.0, 0.0, 0.0, 0.0, 0.0, 0.0, 0.0, 0.0, 0.0, 0.0, 0.0, 0.0, 0.0, 0.0, 0.0, 0.0, 0.0, 0.0, 0.0, 0.0, 0.0, 0.0, 0.0, 0.0, 0.0, 0.0, 0.0, 0.0, 0.0, 0.0, 0.0, 0.0, 0.0, 0.0, 0.0, 0.0, 0.0, 0.0, 0.0, 0.0, 0.0, 0.0, 0.0, 0.0, 0.0, 0.0, 2.0, 0.0, 2.0, 1.0, 0.0, 1.0, 4.0, 2.0, 5.0], "bins": [-19792537600.0, -19178125312.0, -18563713024.0, -17949300736.0, -17334888448.0, -16720475136.0, -16106062848.0, -15491650560.0, -14877238272.0, -14262825984.0, -13648413696.0, -13034001408.0, -12419588096.0, -11805175808.0, -11190763520.0, -10576351232.0, -9961938944.0, -9347526656.0, -8733114368.0, -8118701568.0, -7504289280.0, -6889876992.0, -6275464192.0, -5661051904.0, -5046639616.0, -4432227328.0, -3817814784.0, -3203402240.0, -2588989952.0, -1974577536.0, -1360165120.0, -745752704.0, -131340288.0, 483072128.0, 1097484544.0, 1711896960.0, 2326309376.0, 2940721664.0, 3555134208.0, 4169546752.0, 4783959040.0, 5398371328.0, 6012783616.0, 6627196416.0, 7241608704.0, 7856020992.0, 8470433792.0, 9084846080.0, 9699258368.0, 10313670656.0, 10928082944.0, 11542495232.0, 12156907520.0, 12771320832.0, 13385733120.0, 14000145408.0, 14614557696.0, 15228969984.0, 15843382272.0, 16457794560.0, 17072207872.0, 17686620160.0, 18301032448.0, 18915444736.0, 19529857024.0]}, "gradients/graph_136.bias": {"_type": "histogram", "values": [4.0, 5.0, 3.0, 1.0, 4.0, 0.0, 0.0, 0.0, 0.0, 0.0, 0.0, 0.0, 0.0, 0.0, 0.0, 0.0, 0.0, 0.0, 0.0, 0.0, 0.0, 0.0, 0.0, 0.0, 0.0, 0.0, 0.0, 0.0, 0.0, 0.0, 0.0, 0.0, 0.0, 0.0, 0.0, 0.0, 0.0, 0.0, 0.0, 0.0, 0.0, 0.0, 0.0, 0.0, 0.0, 0.0, 0.0, 0.0, 0.0, 0.0, 0.0, 0.0, 0.0, 0.0, 0.0, 0.0, 0.0, 0.0, 0.0, 2.0, 4.0, 3.0, 2.0, 4.0], "bins": [-128590.0, -124556.015625, -120522.03125, -116488.046875, -112454.0625, -108420.078125, -104386.09375, -100352.109375, -96318.125, -92284.1484375, -88250.1640625, -84216.1796875, -80182.1953125, -76148.2109375, -72114.2265625, -68080.2421875, -64046.2578125, -60012.2734375, -55978.2890625, -51944.3046875, -47910.3203125, -43876.33984375, -39842.35546875, -35808.37109375, -31774.38671875, -27740.40234375, -23706.41796875, -19672.435546875, -15638.451171875, -11604.466796875, -7570.4833984375, -3536.49951171875, 497.4921875, 4531.47607421875, 8565.4599609375, 12599.443359375, 16633.427734375, 20667.412109375, 24701.39453125, 28735.37890625, 32769.36328125, 36803.34765625, 40837.33203125, 44871.31640625, 48905.296875, 52939.28125, 56973.265625, 61007.25, 65041.234375, 69075.21875, 73109.203125, 77143.1875, 81177.171875, 85211.15625, 89245.140625, 93279.125, 97313.109375, 101347.0859375, 105381.0703125, 109415.0546875, 113449.0390625, 117483.0234375, 121517.0078125, 125550.9921875, 129584.9765625]}, "gradients/graph_136.weight": {"_type": "histogram", "values": [5.0, 9.0, 8.0, 9.0, 12.0, 9.0, 8.0, 8.0, 11.0, 5.0, 5.0, 1.0, 0.0, 0.0, 5.0, 4.0, 7.0, 6.0, 6.0, 6.0, 7.0, 4.0, 0.0, 0.0, 0.0, 9.0, 21.0, 22.0, 23.0, 10.0, 5.0, 0.0, 1568.0, 0.0, 17.0, 14.0, 37.0, 18.0, 16.0, 0.0, 0.0, 0.0, 5.0, 7.0, 6.0, 5.0, 9.0, 7.0, 7.0, 5.0, 0.0, 0.0, 1.0, 4.0, 6.0, 11.0, 9.0, 9.0, 14.0, 11.0, 7.0, 13.0, 12.0, 5.0], "bins": [-4109959424.0, -3982016256.0, -3854073088.0, -3726129920.0, -3598186752.0, -3470243584.0, -3342300672.0, -3214357504.0, -3086414336.0, -2958471168.0, -2830528000.0, -2702584832.0, -2574641664.0, -2446698496.0, -2318755328.0, -2190812160.0, -2062869120.0, -1934925952.0, -1806982784.0, -1679039744.0, -1551096576.0, -1423153408.0, -1295210240.0, -1167267072.0, -1039323968.0, -911380800.0, -783437696.0, -655494528.0, -527551392.0, -399608256.0, -271665088.0, -143721952.0, -15778816.0, 112164328.0, 240107472.0, 368050624.0, 495993760.0, 623936896.0, 751880064.0, 879823168.0, 1007766336.0, 1135709440.0, 1263652608.0, 1391595776.0, 1519538944.0, 1647482112.0, 1775425152.0, 1903368320.0, 2031311488.0, 2159254528.0, 2287197696.0, 2415140864.0, 2543084032.0, 2671027200.0, 2798970368.0, 2926913536.0, 3054856704.0, 3182799872.0, 3310743040.0, 3438685952.0, 3566629120.0, 3694572288.0, 3822515456.0, 3950458624.0, 4078401792.0]}, "gradients/graph_134.bias": {"_type": "histogram", "values": [1.0, 0.0, 0.0, 0.0, 0.0, 0.0, 0.0, 1.0, 0.0, 0.0, 0.0, 1.0, 0.0, 0.0, 1.0, 0.0, 0.0, 0.0, 0.0, 0.0, 0.0, 0.0, 0.0, 0.0, 49.0, 0.0, 0.0, 0.0, 1.0, 0.0, 0.0, 0.0, 1.0, 0.0, 3.0, 1.0, 0.0, 0.0, 0.0, 1.0, 1.0, 0.0, 0.0, 0.0, 0.0, 0.0, 1.0, 0.0, 0.0, 0.0, 0.0, 1.0, 0.0, 0.0, 0.0, 0.0, 0.0, 0.0, 0.0, 0.0, 0.0, 0.0, 0.0, 1.0], "bins": [-3548478.0, -3401663.0, -3254847.75, -3108032.5, -2961217.5, -2814402.5, -2667587.25, -2520772.0, -2373957.0, -2227142.0, -2080326.75, -1933511.625, -1786696.5, -1639881.375, -1493066.25, -1346251.125, -1199436.0, -1052620.875, -905805.75, -758990.625, -612175.5, -465360.375, -318545.25, -171730.125, -24915.0, 121900.125, 268715.25, 415530.375, 562345.5, 709160.625, 855975.75, 1002790.875, 1149606.5, 1296421.625, 1443236.75, 1590051.875, 1736867.0, 1883682.125, 2030497.25, 2177312.5, 2324127.5, 2470942.5, 2617757.75, 2764573.0, 2911388.0, 3058203.0, 3205018.25, 3351833.5, 3498648.5, 3645463.5, 3792278.75, 3939094.0, 4085909.0, 4232724.0, 4379539.0, 4526354.5, 4673169.5, 4819984.5, 4966800.0, 5113615.0, 5260430.0, 5407245.0, 5554060.0, 5700875.5, 5847690.5]}, "gradients/graph_134.weight": {"_type": "histogram", "values": [1.0, 1.0, 0.0, 0.0, 1.0, 0.0, 0.0, 0.0, 2.0, 2.0, 2.0, 2.0, 0.0, 3.0, 0.0, 3.0, 6.0, 6.0, 2.0, 9.0, 4.0, 6.0, 8.0, 14.0, 59.0, 6717.0, 249.0, 587.0, 150.0, 90.0, 51.0, 38.0, 26.0, 21.0, 20.0, 18.0, 17.0, 8.0, 11.0, 8.0, 9.0, 6.0, 5.0, 1.0, 2.0, 1.0, 5.0, 1.0, 4.0, 4.0, 4.0, 1.0, 0.0, 0.0, 0.0, 0.0, 1.0, 0.0, 1.0, 0.0, 3.0, 0.0, 1.0, 1.0], "bins": [-9744548864.0, -9369605120.0, -8994661376.0, -8619716608.0, -8244772864.0, -7869829120.0, -7494885376.0, -7119941120.0, -6744997376.0, -6370053632.0, -5995109376.0, -5620165632.0, -5245221888.0, -4870277632.0, -4495333888.0, -4120389888.0, -3745445888.0, -3370501888.0, -2995557888.0, -2620614144.0, -2245670144.0, -1870726144.0, -1495782272.0, -1120838400.0, -745894400.0, -370950464.0, 3993472.0, 378937408.0, 753881344.0, 1128825344.0, 1503769216.0, 1878713088.0, 2253658112.0, 2628602112.0, 3003546112.0, 3378489856.0, 3753433856.0, 4128377856.0, 4503321600.0, 4878265856.0, 5253209600.0, 5628153344.0, 6003097600.0, 6378041344.0, 6752985088.0, 7127929344.0, 7502873088.0, 7877817344.0, 8252761088.0, 8627704832.0, 9002648576.0, 9377593344.0, 9752537088.0, 10127480832.0, 10502424576.0, 10877368320.0, 11252312064.0, 11627256832.0, 12002200576.0, 12377144320.0, 12752088064.0, 13127031808.0, 13501976576.0, 13876920320.0, 14251864064.0]}, "gradients/graph_132.bias": {"_type": "histogram", "values": [1.0, 0.0, 0.0, 0.0, 0.0, 0.0, 1.0, 1.0, 0.0, 0.0, 0.0, 0.0, 0.0, 0.0, 0.0, 2.0, 1.0, 1.0, 0.0, 0.0, 0.0, 2.0, 0.0, 0.0, 0.0, 0.0, 0.0, 0.0, 0.0, 1.0, 1.0, 6.0, 31.0, 20.0, 22.0, 10.0, 12.0, 7.0, 1.0, 2.0, 0.0, 0.0, 3.0, 0.0, 1.0, 0.0, 0.0, 0.0, 0.0, 0.0, 1.0, 0.0, 0.0, 0.0, 0.0, 0.0, 0.0, 0.0, 0.0, 0.0, 0.0, 0.0, 0.0, 1.0], "bins": [-166795760.0, -161607776.0, -156419808.0, -151231824.0, -146043840.0, -140855872.0, -135667888.0, -130479904.0, -125291928.0, -120103952.0, -114915968.0, -109727992.0, -104540016.0, -99352032.0, -94164056.0, -88976072.0, -83788096.0, -78600120.0, -73412136.0, -68224160.0, -63036180.0, -57848200.0, -52660224.0, -47472244.0, -42284264.0, -37096284.0, -31908306.0, -26720328.0, -21532348.0, -16344369.0, -11156390.0, -5968411.0, -780432.0, 4407547.0, 9595526.0, 14783505.0, 19971484.0, 25159464.0, 30347442.0, 35535420.0, 40723400.0, 45911380.0, 51099360.0, 56287336.0, 61475316.0, 66663296.0, 71851272.0, 77039256.0, 82227232.0, 87415208.0, 92603192.0, 97791168.0, 102979152.0, 108167128.0, 113355104.0, 118543088.0, 123731064.0, 128919040.0, 134107024.0, 139295008.0, 144482976.0, 149670960.0, 154858944.0, 160046912.0, 165234896.0]}, "gradients/graph_132.weight": {"_type": "histogram", "values": [1.0, 0.0, 0.0, 0.0, 1.0, 0.0, 0.0, 2.0, 2.0, 1.0, 1.0, 2.0, 0.0, 1.0, 3.0, 1.0, 1.0, 2.0, 3.0, 2.0, 1.0, 3.0, 6.0, 5.0, 8.0, 8.0, 8.0, 7.0, 12.0, 24.0, 22.0, 26.0, 26.0, 36.0, 49.0, 64.0, 77.0, 92.0, 103.0, 128.0, 157.0, 232.0, 972.0, 22550.0, 5239.0, 1668.0, 564.0, 264.0, 114.0, 86.0, 56.0, 33.0, 27.0, 22.0, 13.0, 13.0, 8.0, 6.0, 7.0, 3.0, 3.0, 2.0, 0.0, 1.0], "bins": [-11822326784.0, -11549604864.0, -11276882944.0, -11004161024.0, -10731439104.0, -10458717184.0, -10185995264.0, -9913273344.0, -9640551424.0, -9367829504.0, -9095107584.0, -8822385664.0, -8549663744.0, -8276941824.0, -8004219904.0, -7731497984.0, -7458776064.0, -7186054144.0, -6913332224.0, -6640610304.0, -6367888384.0, -6095166464.0, -5822444544.0, -5549722624.0, -5277000704.0, -5004278784.0, -4731556864.0, -4458834944.0, -4186113024.0, -3913391104.0, -3640669184.0, -3367947264.0, -3095225856.0, -2822503936.0, -2549782016.0, -2277060096.0, -2004338176.0, -1731616256.0, -1458894336.0, -1186172416.0, -913450496.0, -640728576.0, -368006656.0, -95284736.0, 177437184.0, 450159104.0, 722881024.0, 995602944.0, 1268324864.0, 1541046784.0, 1813768704.0, 2086490624.0, 2359212544.0, 2631934464.0, 2904656384.0, 3177378304.0, 3450100224.0, 3722822144.0, 3995544064.0, 4268265984.0, 4540987904.0, 4813709824.0, 5086431744.0, 5359153664.0, 5631875584.0]}, "gradients/graph_130.bias": {"_type": "histogram", "values": [1.0, 1.0, 0.0, 0.0, 0.0, 0.0, 0.0, 0.0, 0.0, 0.0, 1.0, 0.0, 1.0, 0.0, 3.0, 5.0, 2.0, 1.0, 2.0, 5.0, 4.0, 10.0, 16.0, 28.0, 20.0, 21.0, 23.0, 17.0, 16.0, 16.0, 8.0, 7.0, 6.0, 6.0, 5.0, 1.0, 2.0, 4.0, 2.0, 2.0, 2.0, 0.0, 4.0, 1.0, 0.0, 1.0, 1.0, 0.0, 0.0, 1.0, 2.0, 4.0, 0.0, 0.0, 0.0, 1.0, 1.0, 0.0, 0.0, 0.0, 0.0, 1.0, 0.0, 1.0], "bins": [-4253323520.0, -4091297792.0, -3929272064.0, -3767246336.0, -3605220352.0, -3443194624.0, -3281168896.0, -3119143168.0, -2957117440.0, -2795091712.0, -2633065984.0, -2471040256.0, -2309014528.0, -2146988672.0, -1984962816.0, -1822937088.0, -1660911360.0, -1498885632.0, -1336859904.0, -1174834048.0, -1012808320.0, -850782592.0, -688756800.0, -526731040.0, -364705280.0, -202679520.0, -40653760.0, 121372000.0, 283397760.0, 445423520.0, 607449280.0, 769475072.0, 931500544.0, 1093526272.0, 1255552000.0, 1417577856.0, 1579603584.0, 1741629312.0, 1903655168.0, 2065680896.0, 2227706624.0, 2389732352.0, 2551758080.0, 2713783808.0, 2875809792.0, 3037835520.0, 3199861248.0, 3361886976.0, 3523912704.0, 3685938432.0, 3847964160.0, 4009989888.0, 4172015616.0, 4334041600.0, 4496067072.0, 4658093056.0, 4820118528.0, 4982144512.0, 5144170496.0, 5306195968.0, 5468221952.0, 5630247424.0, 5792273408.0, 5954298880.0, 6116324864.0]}, "gradients/graph_130.weight": {"_type": "histogram", "values": [1.0, 0.0, 0.0, 0.0, 1.0, 2.0, 0.0, 0.0, 0.0, 1.0, 1.0, 1.0, 1.0, 0.0, 1.0, 3.0, 0.0, 1.0, 2.0, 4.0, 7.0, 3.0, 6.0, 7.0, 13.0, 21.0, 42.0, 209.0, 118779.0, 895.0, 201.0, 112.0, 87.0, 51.0, 21.0, 16.0, 15.0, 2.0, 8.0, 8.0, 2.0, 8.0, 10.0, 4.0, 4.0, 5.0, 2.0, 4.0, 1.0, 0.0, 2.0, 2.0, 1.0, 0.0, 2.0, 1.0, 2.0, 0.0, 2.0, 0.0, 0.0, 1.0, 0.0, 1.0], "bins": [-48337707008.0, -46654885888.0, -44972064768.0, -43289243648.0, -41606422528.0, -39923601408.0, -38240780288.0, -36557959168.0, -34875138048.0, -33192318976.0, -31509497856.0, -29826676736.0, -28143857664.0, -26461036544.0, -24778215424.0, -23095394304.0, -21412573184.0, -19729752064.0, -18046930944.0, -16364110848.0, -14681289728.0, -12998468608.0, -11315648512.0, -9632827392.0, -7950006272.0, -6267185152.0, -4584364544.0, -2901543680.0, -1218722816.0, 464098048.0, 2146918912.0, 3829739776.0, 5512556544.0, 7195377664.0, 8878198784.0, 10561018880.0, 12243840000.0, 13926661120.0, 15609481216.0, 17292302336.0, 18975123456.0, 20657944576.0, 22340765696.0, 24023586816.0, 25706405888.0, 27389227008.0, 29072048128.0, 30754869248.0, 32437690368.0, 34120511488.0, 35803332608.0, 37486153728.0, 39168974848.0, 40851795968.0, 42534617088.0, 44217438208.0, 45900259328.0, 47583076352.0, 49265897472.0, 50948718592.0, 52631539712.0, 54314360832.0, 55997181952.0, 57680003072.0, 59362824192.0]}, "_wandb": {"runtime": 168}}