{"loss": 0.25068947672843933, "epoch": 153, "_timestamp": 1709809177.590677, "_runtime": 722.8485629558563, "_step": 153, "gradients/graph_228.weight": {"_type": "histogram", "values": [4.0, 4.0, 0.0, 0.0, 0.0, 0.0, 0.0, 1.0, 0.0, 0.0, 0.0, 0.0, 0.0, 0.0, 0.0, 0.0, 0.0, 0.0, 0.0, 0.0, 0.0, 0.0, 0.0, 0.0, 0.0, 0.0, 0.0, 0.0, 0.0, 0.0, 0.0, 1.0, 0.0, 0.0, 0.0, 0.0, 0.0, 0.0, 0.0, 0.0, 0.0, 0.0, 1.0, 0.0, 1.0, 0.0, 0.0, 0.0, 0.0, 0.0, 0.0, 0.0, 0.0, 0.0, 0.0, 0.0, 0.0, 0.0, 0.0, 0.0, 0.0, 0.0, 0.0, 20.0], "bins": [-21961646080.0, -21618495488.0, -21275344896.0, -20932194304.0, -20589043712.0, -20245893120.0, -19902742528.0, -19559591936.0, -19216441344.0, -18873288704.0, -18530138112.0, -18186987520.0, -17843836928.0, -17500686336.0, -17157535744.0, -16814385152.0, -16471234560.0, -16128083968.0, -15784933376.0, -15441782784.0, -15098632192.0, -14755480576.0, -14412329984.0, -14069179392.0, -13726028800.0, -13382878208.0, -13039727616.0, -12696577024.0, -12353425408.0, -12010274816.0, -11667124224.0, -11323973632.0, -10980823040.0, -10637672448.0, -10294521856.0, -9951371264.0, -9608220672.0, -9265069056.0, -8921918464.0, -8578767872.0, -8235617280.0, -7892466688.0, -7549316096.0, -7206164992.0, -6863014400.0, -6519863808.0, -6176712704.0, -5833562112.0, -5490411520.0, -5147260928.0, -4804110336.0, -4460959232.0, -4117808640.0, -3774658048.0, -3431507200.0, -3088356352.0, -2745205760.0, -2402055168.0, -2058904320.0, -1715753600.0, -1372602880.0, -1029452160.0, -686301440.0, -343150720.0, 0.0]}, "gradients/graph_228.bias": {"_type": "histogram", "values": [1.0], "bins": [147149.9375, 147149.9375]}, "gradients/graph_226.weight": {"_type": "histogram", "values": [87.0, 112.0, 65.0, 0.0, 0.0, 3.0, 38.0, 24.0, 26.0, 33.0, 2.0, 5.0, 12.0, 10.0, 5.0, 1556.0, 4.0, 15.0, 29.0, 4.0, 5.0, 0.0, 0.0, 0.0, 1.0, 0.0, 0.0, 0.0, 0.0, 2.0, 0.0, 0.0, 1.0, 0.0, 0.0, 0.0, 0.0, 0.0, 0.0, 0.0, 0.0, 0.0, 0.0, 0.0, 0.0, 0.0, 2.0, 0.0, 3.0, 2.0, 0.0, 1.0, 0.0, 0.0, 0.0, 0.0, 0.0, 0.0, 0.0, 0.0, 0.0, 0.0, 0.0, 1.0], "bins": [-403502464.0, -376743328.0, -349984192.0, -323225088.0, -296465952.0, -269706816.0, -242947680.0, -216188560.0, -189429424.0, -162670288.0, -135911168.0, -109152032.0, -82392904.0, -55633776.0, -28874644.0, -2115514.0, 24643616.0, 51402744.0, 78161872.0, 104921008.0, 131680136.0, 158439264.0, 185198400.0, 211957520.0, 238716656.0, 265475792.0, 292234912.0, 318994048.0, 345753184.0, 372512320.0, 399271424.0, 426030560.0, 452789696.0, 479548832.0, 506307968.0, 533067072.0, 559826240.0, 586585344.0, 613344448.0, 640103616.0, 666862720.0, 693621888.0, 720380992.0, 747140096.0, 773899264.0, 800658368.0, 827417536.0, 854176640.0, 880935808.0, 907694912.0, 934454016.0, 961213184.0, 987972288.0, 1014731456.0, 1041490560.0, 1068249664.0, 1095008768.0, 1121767936.0, 1148527104.0, 1175286144.0, 1202045312.0, 1228804480.0, 1255563648.0, 1282322688.0, 1309081856.0]}, "gradients/graph_226.bias": {"_type": "histogram", "values": [20.0, 0.0, 0.0, 0.0, 0.0, 0.0, 0.0, 0.0, 0.0, 0.0, 0.0, 0.0, 0.0, 0.0, 0.0, 0.0, 0.0, 0.0, 0.0, 0.0, 0.0, 0.0, 0.0, 0.0, 0.0, 1.0, 0.0, 1.0, 0.0, 0.0, 0.0, 0.0, 0.0, 1.0, 0.0, 0.0, 0.0, 0.0, 0.0, 0.0, 0.0, 0.0, 0.0, 0.0, 0.0, 0.0, 0.0, 0.0, 0.0, 0.0, 0.0, 0.0, 0.0, 0.0, 1.0, 2.0, 0.0, 0.0, 0.0, 3.0, 0.0, 2.0, 0.0, 1.0], "bins": [0.0, 2238.17578125, 4476.3515625, 6714.52734375, 8952.703125, 11190.87890625, 13429.0546875, 15667.23046875, 17905.40625, 20143.58203125, 22381.7578125, 24619.93359375, 26858.109375, 29096.28515625, 31334.4609375, 33572.63671875, 35810.8125, 38048.98828125, 40287.1640625, 42525.33984375, 44763.515625, 47001.69140625, 49239.8671875, 51478.04296875, 53716.21875, 55954.39453125, 58192.5703125, 60430.74609375, 62668.921875, 64907.09765625, 67145.2734375, 69383.453125, 71621.625, 73859.796875, 76097.9765625, 78336.15625, 80574.328125, 82812.5, 85050.6796875, 87288.859375, 89527.03125, 91765.203125, 94003.3828125, 96241.5625, 98479.734375, 100717.90625, 102956.0859375, 105194.265625, 107432.4375, 109670.609375, 111908.7890625, 114146.96875, 116385.140625, 118623.3125, 120861.4921875, 123099.671875, 125337.84375, 127576.015625, 129814.1953125, 132052.375, 134290.546875, 136528.71875, 138766.90625, 141005.078125, 143243.25]}, "gradients/graph_224.weight": {"_type": "histogram", "values": [2.0, 0.0, 0.0, 0.0, 0.0, 0.0, 0.0, 0.0, 0.0, 1.0, 0.0, 0.0, 0.0, 0.0, 0.0, 0.0, 0.0, 0.0, 0.0, 0.0, 0.0, 1.0, 0.0, 1.0, 0.0, 2.0, 1.0, 1.0, 2.0, 0.0, 0.0, 1.0, 0.0, 0.0, 4.0, 40.0, 2343.0, 5520.0, 105.0, 81.0, 10.0, 12.0, 22.0, 35.0, 7.0, 0.0, 0.0, 0.0, 0.0, 0.0, 0.0, 0.0, 0.0, 0.0, 0.0, 0.0, 0.0, 0.0, 0.0, 0.0, 0.0, 0.0, 0.0, 1.0], "bins": [-2166268928.0, -2108127616.0, -2049986304.0, -1991844864.0, -1933703552.0, -1875562240.0, -1817420800.0, -1759279488.0, -1701138176.0, -1642996864.0, -1584855552.0, -1526714112.0, -1468572800.0, -1410431488.0, -1352290048.0, -1294148736.0, -1236007424.0, -1177866112.0, -1119724800.0, -1061583360.0, -1003442048.0, -945300736.0, -887159360.0, -829017984.0, -770876672.0, -712735360.0, -654593984.0, -596452608.0, -538311296.0, -480169952.0, -422028608.0, -363887264.0, -305745792.0, -247604448.0, -189463104.0, -131321760.0, -73180416.0, -15039072.0, 43102272.0, 101243616.0, 159384960.0, 217526304.0, 275667648.0, 333808992.0, 391950336.0, 450091680.0, 508233024.0, 566374400.0, 624515712.0, 682657024.0, 740798400.0, 798939776.0, 857081088.0, 915222400.0, 973363776.0, 1031505152.0, 1089646464.0, 1147787776.0, 1205929216.0, 1264070528.0, 1322211840.0, 1380353152.0, 1438494464.0, 1496635904.0, 1554777216.0]}, "gradients/graph_224.bias": {"_type": "histogram", "values": [1.0, 0.0, 0.0, 0.0, 0.0, 0.0, 0.0, 0.0, 0.0, 0.0, 0.0, 0.0, 0.0, 0.0, 0.0, 0.0, 0.0, 0.0, 0.0, 0.0, 0.0, 0.0, 0.0, 0.0, 0.0, 0.0, 0.0, 0.0, 0.0, 0.0, 0.0, 0.0, 0.0, 0.0, 0.0, 0.0, 0.0, 0.0, 0.0, 0.0, 0.0, 0.0, 0.0, 0.0, 0.0, 0.0, 0.0, 0.0, 0.0, 0.0, 0.0, 0.0, 1.0, 0.0, 1.0, 0.0, 0.0, 23.0, 1.0, 0.0, 34.0, 0.0, 1.0, 2.0], "bins": [-15456203.0, -15188103.0, -14920004.0, -14651904.0, -14383804.0, -14115705.0, -13847605.0, -13579506.0, -13311406.0, -13043306.0, -12775207.0, -12507107.0, -12239008.0, -11970908.0, -11702808.0, -11434709.0, -11166609.0, -10898509.0, -10630410.0, -10362310.0, -10094210.0, -9826111.0, -9558011.0, -9289912.0, -9021812.0, -8753712.0, -8485613.0, -8217513.0, -7949413.5, -7681314.0, -7413214.0, -7145114.5, -6877014.5, -6608915.0, -6340815.0, -6072715.5, -5804616.0, -5536516.5, -5268417.0, -5000317.0, -4732217.5, -4464118.0, -4196018.0, -3927918.5, -3659819.0, -3391719.5, -3123619.75, -2855520.0, -2587420.5, -2319321.0, -2051221.25, -1783121.625, -1515022.0, -1246922.375, -978822.75, -710723.125, -442623.5, -174523.875, 93575.75, 361675.375, 629775.0, 897874.625, 1165974.25, 1434073.875, 1702173.5]}, "gradients/graph_222.weight": {"_type": "histogram", "values": [1.0, 0.0, 0.0, 1.0, 0.0, 0.0, 0.0, 0.0, 0.0, 0.0, 0.0, 1.0, 0.0, 1.0, 0.0, 0.0, 0.0, 0.0, 2.0, 1.0, 2.0, 8.0, 30.0, 31756.0, 467.0, 28.0, 35.0, 41.0, 84.0, 44.0, 27.0, 20.0, 48.0, 47.0, 36.0, 16.0, 7.0, 7.0, 6.0, 4.0, 7.0, 5.0, 3.0, 4.0, 4.0, 5.0, 2.0, 5.0, 1.0, 3.0, 2.0, 0.0, 2.0, 1.0, 1.0, 0.0, 0.0, 0.0, 1.0, 1.0, 0.0, 0.0, 0.0, 1.0], "bins": [-5939683840.0, -5688612352.0, -5437540864.0, -5186469376.0, -4935397888.0, -4684326400.0, -4433254912.0, -4182183424.0, -3931111936.0, -3680040448.0, -3428968960.0, -3177897472.0, -2926825984.0, -2675754496.0, -2424683008.0, -2173611520.0, -1922540032.0, -1671468544.0, -1420397056.0, -1169325568.0, -918254080.0, -667182592.0, -416111104.0, -165039616.0, 86031872.0, 337103360.0, 588174848.0, 839246336.0, 1090317824.0, 1341389312.0, 1592460800.0, 1843532288.0, 2094604288.0, 2345675776.0, 2596747264.0, 2847818752.0, 3098890240.0, 3349961728.0, 3601033216.0, 3852104704.0, 4103176192.0, 4354247680.0, 4605319168.0, 4856390656.0, 5107462144.0, 5358533632.0, 5609605120.0, 5860676608.0, 6111748096.0, 6362819584.0, 6613891072.0, 6864962560.0, 7116034048.0, 7367105536.0, 7618177024.0, 7869248512.0, 8120320000.0, 8371391488.0, 8622462976.0, 8873534464.0, 9124605952.0, 9375677440.0, 9626748928.0, 9877820416.0, 10128891904.0]}, "gradients/graph_222.bias": {"_type": "histogram", "values": [1.0, 0.0, 0.0, 0.0, 0.0, 0.0, 0.0, 0.0, 0.0, 0.0, 0.0, 0.0, 0.0, 0.0, 0.0, 0.0, 0.0, 0.0, 0.0, 0.0, 0.0, 0.0, 0.0, 0.0, 0.0, 0.0, 0.0, 0.0, 0.0, 0.0, 1.0, 0.0, 0.0, 0.0, 0.0, 0.0, 0.0, 0.0, 0.0, 0.0, 0.0, 0.0, 0.0, 0.0, 0.0, 0.0, 0.0, 0.0, 0.0, 0.0, 0.0, 0.0, 0.0, 0.0, 1.0, 0.0, 3.0, 2.0, 1.0, 1.0, 1.0, 22.0, 92.0, 3.0], "bins": [-628815872.0, -618542848.0, -608269824.0, -597996800.0, -587723776.0, -577450752.0, -567177792.0, -556904768.0, -546631744.0, -536358720.0, -526085696.0, -515812672.0, -505539648.0, -495266624.0, -484993632.0, -474720608.0, -464447584.0, -454174560.0, -443901536.0, -433628544.0, -423355520.0, -413082496.0, -402809472.0, -392536448.0, -382263424.0, -371990432.0, -361717408.0, -351444384.0, -341171360.0, -330898336.0, -320625344.0, -310352320.0, -300079264.0, -289806272.0, -279533248.0, -269260224.0, -258987200.0, -248714176.0, -238441168.0, -228168144.0, -217895136.0, -207622112.0, -197349088.0, -187076080.0, -176803056.0, -166530048.0, -156257024.0, -145984000.0, -135710992.0, -125437968.0, -115164952.0, -104891936.0, -94618912.0, -84345896.0, -74072880.0, -63799860.0, -53526840.0, -43253824.0, -32980806.0, -22707788.0, -12434770.0, -2161752.0, 8111266.0, 18384284.0, 28657302.0]}, "gradients/graph_220.weight": {"_type": "histogram", "values": [1.0, 1.0, 1.0, 1.0, 0.0, 0.0, 0.0, 0.0, 0.0, 0.0, 0.0, 0.0, 1.0, 1.0, 0.0, 0.0, 0.0, 0.0, 2.0, 0.0, 0.0, 1.0, 8.0, 5.0, 3.0, 7.0, 10.0, 4.0, 8.0, 11.0, 4.0, 6.0, 7.0, 14.0, 10.0, 17.0, 19.0, 27.0, 23.0, 29.0, 28.0, 40.0, 49.0, 56.0, 71.0, 102.0, 197.0, 918.0, 117981.0, 566.0, 237.0, 47.0, 29.0, 8.0, 6.0, 5.0, 3.0, 3.0, 2.0, 2.0, 0.0, 1.0, 2.0, 2.0], "bins": [-45021491200.0, -44086194176.0, -43150901248.0, -42215604224.0, -41280307200.0, -40345010176.0, -39409717248.0, -38474420224.0, -37539123200.0, -36603826176.0, -35668533248.0, -34733236224.0, -33797939200.0, -32862644224.0, -31927347200.0, -30992052224.0, -30056755200.0, -29121460224.0, -28186165248.0, -27250868224.0, -26315573248.0, -25380276224.0, -24444981248.0, -23509684224.0, -22574389248.0, -21639092224.0, -20703797248.0, -19768500224.0, -18833205248.0, -17897908224.0, -16962613248.0, -16027317248.0, -15092020224.0, -14156724224.0, -13221428224.0, -12286132224.0, -11350836224.0, -10415540224.0, -9480244224.0, -8544948736.0, -7609652736.0, -6674356736.0, -5739060736.0, -4803764736.0, -3868468992.0, -2933172992.0, -1997877120.0, -1062581184.0, -127285248.0, 808010688.0, 1743306624.0, 2678602496.0, 3613898496.0, 4549194240.0, 5484490240.0, 6419786240.0, 7355082240.0, 8290378240.0, 9225673728.0, 10160969728.0, 11096265728.0, 12031561728.0, 12966857728.0, 13902153728.0, 14837449728.0]}, "gradients/graph_220.bias": {"_type": "histogram", "values": [1.0, 0.0, 0.0, 0.0, 0.0, 2.0, 0.0, 0.0, 1.0, 3.0, 1.0, 6.0, 6.0, 7.0, 15.0, 17.0, 15.0, 23.0, 20.0, 9.0, 9.0, 7.0, 10.0, 7.0, 4.0, 5.0, 6.0, 4.0, 7.0, 5.0, 4.0, 7.0, 4.0, 4.0, 2.0, 2.0, 2.0, 1.0, 2.0, 0.0, 5.0, 0.0, 1.0, 2.0, 4.0, 5.0, 3.0, 1.0, 3.0, 2.0, 4.0, 2.0, 1.0, 2.0, 0.0, 1.0, 0.0, 0.0, 0.0, 0.0, 0.0, 1.0, 0.0, 1.0], "bins": [-1367750528.0, -1270989824.0, -1174229120.0, -1077468416.0, -980707648.0, -883946944.0, -787186176.0, -690425472.0, -593664768.0, -496904064.0, -400143328.0, -303382592.0, -206621888.0, -109861168.0, -13100448.0, 83660272.0, 180420992.0, 277181696.0, 373942432.0, 470703168.0, 567463872.0, 664224576.0, 760985344.0, 857746048.0, 954506752.0, 1051267456.0, 1148028160.0, 1244788864.0, 1341549568.0, 1438310400.0, 1535071104.0, 1631831808.0, 1728592384.0, 1825353088.0, 1922113792.0, 2018874496.0, 2115635200.0, 2212396032.0, 2309156608.0, 2405917440.0, 2502678016.0, 2599438848.0, 2696199680.0, 2792960256.0, 2889721088.0, 2986481664.0, 3083242496.0, 3180003072.0, 3276763904.0, 3373524736.0, 3470285312.0, 3567046144.0, 3663806720.0, 3760567552.0, 3857328128.0, 3954088960.0, 4050849792.0, 4147610368.0, 4244371200.0, 4341131776.0, 4437892608.0, 4534653440.0, 4631413760.0, 4728174592.0, 4824935424.0]}, "gradients/graph_238.weight": {"_type": "histogram", "values": [2.0, 0.0, 0.0, 20.0, 1.0, 0.0, 0.0, 0.0, 0.0, 0.0, 0.0, 0.0, 0.0, 0.0, 0.0, 1.0, 0.0, 2.0, 0.0, 1.0, 0.0, 0.0, 0.0, 0.0, 0.0, 1.0, 2.0, 0.0, 0.0, 0.0, 0.0, 1.0, 0.0, 0.0, 0.0, 0.0, 0.0, 0.0, 0.0, 0.0, 0.0, 0.0, 0.0, 0.0, 0.0, 0.0, 0.0, 0.0, 0.0, 0.0, 0.0, 0.0, 0.0, 0.0, 0.0, 0.0, 0.0, 0.0, 0.0, 0.0, 0.0, 0.0, 0.0, 1.0], "bins": [-799905792.0, -551902848.0, -303899904.0, -55896960.0, 192105984.0, 440108928.0, 688111872.0, 936114816.0, 1184117760.0, 1432120704.0, 1680123648.0, 1928126592.0, 2176129536.0, 2424132608.0, 2672135424.0, 2920138240.0, 3168141312.0, 3416144384.0, 3664147200.0, 3912150016.0, 4160153088.0, 4408156160.0, 4656158720.0, 4904161792.0, 5152164864.0, 5400167936.0, 5648171008.0, 5896173568.0, 6144176640.0, 6392179712.0, 6640182272.0, 6888185344.0, 7136188416.0, 7384191488.0, 7632194560.0, 7880197120.0, 8128200192.0, 8376203264.0, 8624205824.0, 8872209408.0, 9120211968.0, 9368214528.0, 9616218112.0, 9864220672.0, 10112223232.0, 10360226816.0, 10608229376.0, 10856232960.0, 11104235520.0, 11352238080.0, 11600241664.0, 11848244224.0, 12096247808.0, 12344250368.0, 12592252928.0, 12840256512.0, 13088259072.0, 13336261632.0, 13584265216.0, 13832267776.0, 14080270336.0, 14328273920.0, 14576276480.0, 14824280064.0, 15072282624.0]}, "gradients/graph_238.bias": {"_type": "histogram", "values": [1.0], "bins": [75107.0625, 75107.0625]}, "gradients/graph_236.weight": {"_type": "histogram", "values": [1568.0, 2.0, 2.0, 15.0, 4.0, 1.0, 5.0, 10.0, 17.0, 7.0, 0.0, 1.0, 0.0, 2.0, 5.0, 7.0, 32.0, 28.0, 0.0, 0.0, 2.0, 9.0, 22.0, 0.0, 1.0, 1.0, 0.0, 0.0, 0.0, 0.0, 5.0, 15.0, 14.0, 0.0, 2.0, 8.0, 19.0, 35.0, 28.0, 50.0, 58.0, 36.0, 8.0, 18.0, 2.0, 0.0, 0.0, 1.0, 0.0, 0.0, 0.0, 0.0, 0.0, 0.0, 1.0, 1.0, 0.0, 0.0, 0.0, 3.0, 1.0, 1.0, 0.0, 1.0], "bins": [-21611214.0, 28306006.0, 78223224.0, 128140448.0, 178057664.0, 227974880.0, 277892096.0, 327809312.0, 377726560.0, 427643776.0, 477560992.0, 527478208.0, 577395456.0, 627312640.0, 677229888.0, 727147072.0, 777064320.0, 826981504.0, 876898752.0, 926815936.0, 976733184.0, 1026650432.0, 1076567680.0, 1126484864.0, 1176402048.0, 1226319232.0, 1276236544.0, 1326153728.0, 1376070912.0, 1425988224.0, 1475905408.0, 1525822592.0, 1575739776.0, 1625656960.0, 1675574272.0, 1725491456.0, 1775408640.0, 1825325824.0, 1875243136.0, 1925160320.0, 1975077504.0, 2024994816.0, 2074912000.0, 2124829184.0, 2174746368.0, 2224663552.0, 2274580736.0, 2324498176.0, 2374415360.0, 2424332544.0, 2474249728.0, 2524166912.0, 2574084096.0, 2624001280.0, 2673918720.0, 2723835904.0, 2773753088.0, 2823670272.0, 2873587456.0, 2923504640.0, 2973421824.0, 3023339264.0, 3073256448.0, 3123173632.0, 3173090816.0]}, "gradients/graph_236.bias": {"_type": "histogram", "values": [20.0, 0.0, 0.0, 0.0, 0.0, 0.0, 0.0, 0.0, 0.0, 0.0, 0.0, 0.0, 0.0, 0.0, 0.0, 0.0, 0.0, 0.0, 0.0, 0.0, 0.0, 0.0, 0.0, 0.0, 1.0, 1.0, 0.0, 0.0, 0.0, 0.0, 0.0, 0.0, 1.0, 0.0, 0.0, 0.0, 0.0, 0.0, 0.0, 0.0, 0.0, 0.0, 0.0, 0.0, 0.0, 0.0, 0.0, 1.0, 0.0, 0.0, 0.0, 0.0, 0.0, 0.0, 1.0, 1.0, 0.0, 0.0, 0.0, 3.0, 1.0, 1.0, 0.0, 1.0], "bins": [0.0, 1142.2200927734375, 2284.440185546875, 3426.66015625, 4568.88037109375, 5711.1005859375, 6853.3203125, 7995.54052734375, 9137.7607421875, 10279.98046875, 11422.201171875, 12564.4208984375, 13706.640625, 14848.861328125, 15991.0810546875, 17133.30078125, 18275.521484375, 19417.7421875, 20559.9609375, 21702.181640625, 22844.40234375, 23986.62109375, 25128.841796875, 26271.0625, 27413.28125, 28555.501953125, 29697.72265625, 30839.943359375, 31982.162109375, 33124.3828125, 34266.6015625, 35408.82421875, 36551.04296875, 37693.26171875, 38835.484375, 39977.703125, 41119.921875, 42262.14453125, 43404.36328125, 44546.58203125, 45688.8046875, 46831.0234375, 47973.2421875, 49115.46484375, 50257.68359375, 51399.90234375, 52542.125, 53684.34375, 54826.5625, 55968.78515625, 57111.00390625, 58253.2265625, 59395.4453125, 60537.6640625, 61679.88671875, 62822.10546875, 63964.32421875, 65106.546875, 66248.765625, 67390.984375, 68533.203125, 69675.421875, 70817.6484375, 71959.8671875, 73102.0859375]}, "gradients/graph_234.weight": {"_type": "histogram", "values": [4.0, 5.0, 0.0, 1.0, 1.0, 0.0, 2.0, 2.0, 33.0, 26.0, 15.0, 5.0, 10.0, 5.0, 10.0, 0.0, 1.0, 1.0, 0.0, 0.0, 0.0, 0.0, 0.0, 0.0, 0.0, 0.0, 0.0, 0.0, 0.0, 0.0, 0.0, 0.0, 0.0, 0.0, 0.0, 0.0, 1.0, 0.0, 0.0, 0.0, 1.0, 0.0, 0.0, 0.0, 0.0, 0.0, 0.0, 0.0, 0.0, 0.0, 0.0, 0.0, 0.0, 93.0, 58.0, 92.0, 3.0, 3151.0, 190.0, 993.0, 3143.0, 105.0, 168.0, 73.0], "bins": [-6992886784.0, -6871676928.0, -6750467584.0, -6629257728.0, -6508047872.0, -6386838016.0, -6265628672.0, -6144418816.0, -6023208960.0, -5901999104.0, -5780789760.0, -5659579904.0, -5538370048.0, -5417160192.0, -5295950848.0, -5174740992.0, -5053531136.0, -4932321792.0, -4811111936.0, -4689902080.0, -4568692224.0, -4447482880.0, -4326273024.0, -4205063168.0, -4083853568.0, -3962643712.0, -3841434112.0, -3720224256.0, -3599014656.0, -3477804800.0, -3356595200.0, -3235385344.0, -3114176000.0, -2992966144.0, -2871756544.0, -2750546688.0, -2629337088.0, -2508127232.0, -2386917632.0, -2265707776.0, -2144498176.0, -2023288448.0, -1902078720.0, -1780868992.0, -1659659264.0, -1538449536.0, -1417239808.0, -1296030080.0, -1174820352.0, -1053610688.0, -932400960.0, -811191232.0, -689981568.0, -568771840.0, -447562112.0, -326352384.0, -205142656.0, -83932936.0, 37276784.0, 158486496.0, 279696224.0, 400905952.0, 522115648.0, 643325376.0, 764535104.0]}, "gradients/graph_234.bias": {"_type": "histogram", "values": [1.0, 0.0, 0.0, 0.0, 0.0, 0.0, 0.0, 0.0, 0.0, 0.0, 0.0, 0.0, 0.0, 0.0, 0.0, 0.0, 0.0, 0.0, 0.0, 0.0, 0.0, 0.0, 0.0, 0.0, 0.0, 0.0, 0.0, 0.0, 0.0, 0.0, 0.0, 0.0, 0.0, 0.0, 0.0, 0.0, 0.0, 0.0, 0.0, 0.0, 0.0, 0.0, 0.0, 0.0, 0.0, 0.0, 0.0, 0.0, 0.0, 0.0, 0.0, 0.0, 0.0, 1.0, 1.0, 0.0, 0.0, 23.0, 1.0, 0.0, 34.0, 1.0, 0.0, 2.0], "bins": [-7741459.5, -7607278.0, -7473096.5, -7338915.0, -7204733.5, -7070552.0, -6936371.0, -6802189.5, -6668008.0, -6533826.5, -6399645.0, -6265463.5, -6131282.0, -5997100.5, -5862919.0, -5728737.5, -5594556.0, -5460375.0, -5326193.5, -5192012.0, -5057830.5, -4923649.0, -4789467.5, -4655286.0, -4521104.5, -4386923.0, -4252741.5, -4118560.25, -3984378.75, -3850197.25, -3716016.0, -3581834.5, -3447653.5, -3313472.0, -3179290.5, -3045109.0, -2910927.5, -2776746.25, -2642564.75, -2508383.25, -2374201.75, -2240020.25, -2105839.0, -1971657.5, -1837476.0, -1703294.5, -1569113.125, -1434931.625, -1300750.25, -1166568.75, -1032387.25, -898205.8125, -764024.375, -629842.9375, -495661.46875, -361480.0, -227298.5625, -93117.109375, 41064.34375, 175245.796875, 309427.25, 443608.6875, 577790.125, 711971.625, 846153.0625]}, "gradients/graph_232.weight": {"_type": "histogram", "values": [1.0, 0.0, 0.0, 0.0, 0.0, 1.0, 0.0, 0.0, 0.0, 0.0, 0.0, 2.0, 3.0, 7.0, 2.0, 4.0, 2.0, 4.0, 2.0, 9.0, 9.0, 9.0, 7.0, 6.0, 9.0, 5.0, 6.0, 2.0, 1.0, 3.0, 2.0, 3.0, 4.0, 2.0, 1.0, 2.0, 3.0, 4.0, 3.0, 8.0, 11.0, 9.0, 11.0, 17.0, 9.0, 19.0, 18.0, 11.0, 6.0, 7.0, 9.0, 9.0, 13.0, 16.0, 13.0, 17.0, 24.0, 34.0, 129.0, 378.0, 535.0, 16756.0, 14453.0, 138.0], "bins": [-6541884928.0, -6436034560.0, -6330184192.0, -6224333824.0, -6118483456.0, -6012633088.0, -5906782208.0, -5800931840.0, -5695081472.0, -5589231104.0, -5483380736.0, -5377530368.0, -5271680000.0, -5165829632.0, -5059979264.0, -4954128896.0, -4848278528.0, -4742427648.0, -4636577280.0, -4530726912.0, -4424876544.0, -4319026176.0, -4213175808.0, -4107325440.0, -4001475072.0, -3895624448.0, -3789774080.0, -3683923712.0, -3578073344.0, -3472222976.0, -3366372352.0, -3260521984.0, -3154671616.0, -3048821248.0, -2942970880.0, -2837120256.0, -2731269888.0, -2625419520.0, -2519569152.0, -2413718784.0, -2307868160.0, -2202017792.0, -2096167424.0, -1990317056.0, -1884466560.0, -1778616192.0, -1672765824.0, -1566915328.0, -1461064960.0, -1355214592.0, -1249364096.0, -1143513728.0, -1037663296.0, -931812864.0, -825962432.0, -720112000.0, -614261632.0, -508411200.0, -402560768.0, -296710368.0, -190859952.0, -85009536.0, 20840880.0, 126691296.0, 232541712.0]}, "gradients/graph_232.bias": {"_type": "histogram", "values": [1.0, 0.0, 0.0, 0.0, 0.0, 0.0, 0.0, 0.0, 0.0, 0.0, 0.0, 0.0, 0.0, 0.0, 0.0, 0.0, 0.0, 0.0, 0.0, 0.0, 0.0, 0.0, 0.0, 0.0, 0.0, 0.0, 0.0, 0.0, 0.0, 0.0, 0.0, 0.0, 0.0, 0.0, 1.0, 0.0, 0.0, 0.0, 0.0, 0.0, 0.0, 0.0, 0.0, 0.0, 0.0, 0.0, 0.0, 0.0, 0.0, 0.0, 0.0, 0.0, 0.0, 0.0, 0.0, 0.0, 0.0, 1.0, 3.0, 2.0, 2.0, 2.0, 33.0, 83.0], "bins": [-450678784.0, -443415296.0, -436151776.0, -428888288.0, -421624768.0, -414361280.0, -407097792.0, -399834272.0, -392570784.0, -385307296.0, -378043776.0, -370780288.0, -363516800.0, -356253280.0, -348989792.0, -341726272.0, -334462784.0, -327199296.0, -319935776.0, -312672288.0, -305408768.0, -298145280.0, -290881792.0, -283618272.0, -276354784.0, -269091296.0, -261827776.0, -254564288.0, -247300784.0, -240037280.0, -232773792.0, -225510288.0, -218246800.0, -210983296.0, -203719792.0, -196456288.0, -189192800.0, -181929296.0, -174665792.0, -167402288.0, -160138800.0, -152875296.0, -145611792.0, -138348288.0, -131084792.0, -123821296.0, -116557792.0, -109294296.0, -102030792.0, -94767296.0, -87503792.0, -80240296.0, -72976792.0, -65713296.0, -58449792.0, -51186296.0, -43922792.0, -36659296.0, -29395794.0, -22132294.0, -14868794.0, -7605294.0, -341794.0, 6921706.0, 14185206.0]}, "gradients/graph_230.weight": {"_type": "histogram", "values": [1.0, 0.0, 0.0, 2.0, 0.0, 2.0, 4.0, 6.0, 10.0, 18.0, 29.0, 37.0, 27.0, 26.0, 38.0, 57.0, 64.0, 70.0, 93.0, 179.0, 587.0, 115573.0, 2164.0, 507.0, 254.0, 228.0, 178.0, 102.0, 69.0, 56.0, 46.0, 33.0, 23.0, 23.0, 14.0, 10.0, 7.0, 4.0, 7.0, 6.0, 2.0, 5.0, 5.0, 0.0, 2.0, 3.0, 3.0, 0.0, 1.0, 0.0, 0.0, 0.0, 0.0, 0.0, 0.0, 0.0, 0.0, 0.0, 0.0, 0.0, 0.0, 0.0, 0.0, 1.0], "bins": [-2993850368.0, -2857061120.0, -2720271872.0, -2583482368.0, -2446693120.0, -2309903872.0, -2173114368.0, -2036325120.0, -1899535872.0, -1762746624.0, -1625957248.0, -1489167872.0, -1352378624.0, -1215589376.0, -1078800000.0, -942010688.0, -805221376.0, -668432064.0, -531642752.0, -394853440.0, -258064128.0, -121274816.0, 15514496.0, 152303808.0, 289093120.0, 425882432.0, 562671744.0, 699461056.0, 836250368.0, 973039680.0, 1109828992.0, 1246618368.0, 1383407104.0, 1520196352.0, 1656985728.0, 1793775104.0, 1930564352.0, 2067353600.0, 2204143104.0, 2340932352.0, 2477721600.0, 2614510848.0, 2751300096.0, 2888089600.0, 3024878848.0, 3161668096.0, 3298457600.0, 3435246848.0, 3572036096.0, 3708825344.0, 3845614592.0, 3982404096.0, 4119193344.0, 4255982592.0, 4392772096.0, 4529561088.0, 4666350592.0, 4803140096.0, 4939929088.0, 5076718592.0, 5213507584.0, 5350297088.0, 5487086592.0, 5623875584.0, 5760665088.0]}, "gradients/graph_230.bias": {"_type": "histogram", "values": [1.0, 0.0, 0.0, 0.0, 0.0, 2.0, 0.0, 3.0, 1.0, 2.0, 5.0, 8.0, 11.0, 15.0, 23.0, 19.0, 14.0, 20.0, 8.0, 10.0, 6.0, 7.0, 7.0, 5.0, 7.0, 2.0, 12.0, 4.0, 9.0, 6.0, 4.0, 3.0, 3.0, 4.0, 2.0, 2.0, 5.0, 2.0, 2.0, 5.0, 5.0, 1.0, 3.0, 3.0, 2.0, 0.0, 0.0, 1.0, 0.0, 0.0, 0.0, 0.0, 0.0, 0.0, 0.0, 0.0, 0.0, 0.0, 1.0, 0.0, 0.0, 0.0, 0.0, 1.0], "bins": [-1204436864.0, -1122498176.0, -1040559488.0, -958620800.0, -876682112.0, -794743360.0, -712804672.0, -630865984.0, -548927296.0, -466988608.0, -385049920.0, -303111200.0, -221172512.0, -139233824.0, -57295120.0, 24643576.0, 106582272.0, 188520960.0, 270459648.0, 352398368.0, 434337056.0, 516275744.0, 598214464.0, 680153152.0, 762091840.0, 844030528.0, 925969216.0, 1007907904.0, 1089846656.0, 1171785344.0, 1253724032.0, 1335662720.0, 1417601280.0, 1499539968.0, 1581478656.0, 1663417344.0, 1745356032.0, 1827294720.0, 1909233408.0, 1991172096.0, 2073110784.0, 2155049472.0, 2236988160.0, 2318926848.0, 2400865536.0, 2482804224.0, 2564742912.0, 2646681600.0, 2728620544.0, 2810559232.0, 2892497920.0, 2974436608.0, 3056375296.0, 3138313984.0, 3220252672.0, 3302191360.0, 3384130048.0, 3466068736.0, 3548007424.0, 3629946112.0, 3711884800.0, 3793823488.0, 3875762176.0, 3957700864.0, 4039639552.0]}}